<?xml version="1.0"?>
<opencv_storage>
<cascade>
  <stageType>BOOST</stageType>
  <featureType>LBP</featureType>
  <height>20</height>
  <width>20</width>
  <stageParams>
    <boostType>GAB</boostType>
    <minHitRate>9.9900001287460327e-01</minHitRate>
    <maxFalseAlarm>5.0000000000000000e-01</maxFalseAlarm>
    <weightTrimRate>9.4999999999999996e-01</weightTrimRate>
    <maxDepth>1</maxDepth>
    <maxWeakCount>100</maxWeakCount></stageParams>
  <featureParams>
    <maxCatCount>256</maxCatCount>
    <featSize>1</featSize></featureParams>
  <stageNum>20</stageNum>
  <stages>
    <!-- stage 0 -->
    <_>
      <maxWeakCount>4</maxWeakCount>
      <stageThreshold>-2.0931482315063477e+00</stageThreshold>
      <weakClassifiers>
        <_>
          <internalNodes>
            0 -1 45 -1 -1 -262178 -2097154 -67108865 -4199425 -1 -1</internalNodes>
          <leafValues>
            -9.4626474380493164e-01 9.3087559938430786e-01</leafValues></_>
        <_>
          <internalNodes>
            0 -1 38 -1 -290521089 -69207586 -287383586 -1 -136844289
            -5244929 -2</internalNodes>
          <leafValues>
            -9.5566028356552124e-01 7.8991210460662842e-01</leafValues></_>
        <_>
          <internalNodes>
            0 -1 22 -1 2143223807 -42272772 -18941956 -1 -2049 -3 -1</internalNodes>
          <leafValues>
            -9.2788201570510864e-01 7.2975492477416992e-01</leafValues></_>
        <_>
          <internalNodes>
            0 -1 103 -1 -1089 -134218322 -268435474 -201 -1297 -1280 -3</internalNodes>
          <leafValues>
            -9.2065030336380005e-01 7.3665875196456909e-01</leafValues></_></weakClassifiers></_>
    <!-- stage 1 -->
    <_>
      <maxWeakCount>3</maxWeakCount>
      <stageThreshold>-1.3488042354583740e+00</stageThreshold>
      <weakClassifiers>
        <_>
          <internalNodes>
            0 -1 42 -706740225 -1007701569 -813746194 -265218 -548865
            -216317025 -67372097 -1</internalNodes>
          <leafValues>
            -9.4889038801193237e-01 7.8435516357421875e-01</leafValues></_>
        <_>
          <internalNodes>
            0 -1 12 -8390657 585032639 -783298293 -1428228673 -6297633
            2147479983 -3154177 -16777217</internalNodes>
          <leafValues>
            -9.2375040054321289e-01 7.7179086208343506e-01</leafValues></_>
        <_>
          <internalNodes>
            0 -1 10 -36177921 -285805586 -69762050 -285280258 -1025
            -67372289 -3073 -16777225</internalNodes>
          <leafValues>
            -9.6928644180297852e-01 5.2383655309677124e-01</leafValues></_></weakClassifiers></_>
    <!-- stage 2 -->
    <_>
      <maxWeakCount>4</maxWeakCount>
      <stageThreshold>-2.0427937507629395e+00</stageThreshold>
      <weakClassifiers>
        <_>
          <internalNodes>
            0 -1 46 -783026689 -552120235 1971057116 -2926601
            -1035865153 -1683783099 -170919527 -1</internalNodes>
          <leafValues>
            -9.4209808111190796e-01 6.9715446233749390e-01</leafValues></_>
        <_>
          <internalNodes>
            0 -1 113 -104333313 -9962009 -685554721 -2116809 289751549
            -6298945 1370690965 -5</internalNodes>
          <leafValues>
            -8.7882119417190552e-01 7.0277863740921021e-01</leafValues></_>
        <_>
          <internalNodes>
            0 -1 91 -716963841 -115662525 -786171426 -9178659 1922038261
            -356806245 -201327756 -3</internalNodes>
          <leafValues>
            -8.9148926734924316e-01 5.3917318582534790e-01</leafValues></_>
        <_>
          <internalNodes>
            0 -1 20 931083262 568240039 17556225 -1142947985 -1138810881
            -242777710 -1043930193 -4220929</internalNodes>
          <leafValues>
            -7.5648254156112671e-01 6.6961485147476196e-01</leafValues></_></weakClassifiers></_>
    <!-- stage 3 -->
    <_>
      <maxWeakCount>4</maxWeakCount>
      <stageThreshold>-2.0703761577606201e+00</stageThreshold>
      <weakClassifiers>
        <_>
          <internalNodes>
            0 -1 95 -2100225 -79703587 -137626145 -8692845 -35652611
            -1107297285 -35702276 -1</internalNodes>
          <leafValues>
            -8.7323945760726929e-01 5.5863541364669800e-01</leafValues></_>
        <_>
          <internalNodes>
            0 -1 44 -708313633 -572598826 -708388900 -8455714 -377232449
            -594444137 -787875361 -8193</internalNodes>
          <leafValues>
            -9.3475329875946045e-01 4.2281618714332581e-01</leafValues></_>
        <_>
          <internalNodes>
            0 -1 63 -545262593 -136356929 2075357664 -1028 -238027265
            -125326661 -1140852368 -2</internalNodes>
          <leafValues>
            -8.0805826187133789e-01 5.3063970804214478e-01</leafValues></_>
        <_>
          <internalNodes>
            0 -1 55 -33793 587136511 1695667627 -1078284038 -493364225
            -610287157 -783440241 -1</internalNodes>
          <leafValues>
            -7.1100246906280518e-01 5.4567492008209229e-01</leafValues></_></weakClassifiers></_>
    <!-- stage 4 -->
    <_>
      <maxWeakCount>6</maxWeakCount>
      <stageThreshold>-2.1975634098052979e+00</stageThreshold>
      <weakClassifiers>
        <_>
          <internalNodes>
            0 -1 115 -1025 -542643301 1199636943 -15754449 2074835901
            -71315281 -471895811 -1</internalNodes>
          <leafValues>
            -8.5207909345626831e-01 4.2596349120140076e-01</leafValues></_>
        <_>
          <internalNodes>
            0 -1 41 -180496897 1565513682 -216500228 1606899012
            1418188031 -116029205 -989727233 -10493953</internalNodes>
          <leafValues>
            -8.7048208713531494e-01 3.6783087253570557e-01</leafValues></_>
        <_>
          <internalNodes>
            0 -1 21 1339898879 552925311 -1054495357 1069463454
            -720379153 -392481 -473183250 -1077937153</internalNodes>
          <leafValues>
            -8.3711832761764526e-01 3.8536658883094788e-01</leafValues></_>
        <_>
          <internalNodes>
            0 -1 86 -235941379 -79097769 -1645585569 -110084 -241559044
            -4464481 2077950700 -1409676616</internalNodes>
          <leafValues>
            -7.2314387559890747e-01 4.5685753226280212e-01</leafValues></_>
        <_>
          <internalNodes>
            0 -1 137 990526463 -687666799 17662103 -674266935 33765885
            -1467283325 1796350711 -1074808085</internalNodes>
          <leafValues>
            -5.9033560752868652e-01 6.0005295276641846e-01</leafValues></_>
        <_>
          <internalNodes>
            0 -1 87 -140512257 -474167939 -1316530402 -589507944
            -1610487299 -830263071 -738459659 -357179436</internalNodes>
          <leafValues>
            -7.0070368051528931e-01 4.8520705103874207e-01</leafValues></_></weakClassifiers></_>
    <!-- stage 5 -->
    <_>
      <maxWeakCount>6</maxWeakCount>
      <stageThreshold>-2.3296179771423340e+00</stageThreshold>
      <weakClassifiers>
        <_>
          <internalNodes>
            0 -1 29 -604113409 -10273 -183640098 -3223586 -51325973
            -342442869 -68157953 -17409</internalNodes>
          <leafValues>
            -8.6954957246780396e-01 2.9082968831062317e-01</leafValues></_>
        <_>
          <internalNodes>
            0 -1 118 1609546751 -539761761 -783703045 -5537493
            1442280949 -71326979 -1082379 -17409</internalNodes>
          <leafValues>
            -8.0340701341629028e-01 4.6778446435928345e-01</leafValues></_>
        <_>
          <internalNodes>
            0 -1 83 -3073 -470355169 -648031266 -268520964 -1144003585
            -1683254741 -8650764 -8203</internalNodes>
          <leafValues>
            -8.0583310127258301e-01 3.8227307796478271e-01</leafValues></_>
        <_>
          <internalNodes>
            0 -1 15 1071562751 754767870 -519454497 -1080047649
            -518560865 -71313221 -343162113 -1610612773</internalNodes>
          <leafValues>
            -7.0004349946975708e-01 5.2602708339691162e-01</leafValues></_>
        <_>
          <internalNodes>
            0 -1 75 -638329379 -1986428581 897692670 1573338463
            -1412746755 -1141931797 1758208188 804129322</internalNodes>
          <leafValues>
            -6.9765353202819824e-01 4.5417815446853638e-01</leafValues></_>
        <_>
          <internalNodes>
            0 -1 53 -203435561 -285289258 -787377825 -16854700
            1224852109 -1411415934 -788410355 -3106</internalNodes>
          <leafValues>
            -7.8164768218994141e-01 3.8648954033851624e-01</leafValues></_></weakClassifiers></_>
    <!-- stage 6 -->
    <_>
      <maxWeakCount>6</maxWeakCount>
      <stageThreshold>-2.0994939804077148e+00</stageThreshold>
      <weakClassifiers>
        <_>
          <internalNodes>
            0 -1 144 823999374 -69533612 1904681471 -33568417 2064393215
            -374669277 -72680449 -68178965</internalNodes>
          <leafValues>
            -7.9908078908920288e-01 4.0503433346748352e-01</leafValues></_>
        <_>
          <internalNodes>
            0 -1 74 -749209122 -740834947 -195569156 -549465447
            -98566403 -35923205 -1697691400 -1073767681</internalNodes>
          <leafValues>
            -8.5802721977233887e-01 3.4865820407867432e-01</leafValues></_>
        <_>
          <internalNodes>
            0 -1 14 786307839 939409959 286343171 2144281547 -203699569
            -1704755062 -886059349 -1073759249</internalNodes>
          <leafValues>
            -7.3396480083465576e-01 4.5411968231201172e-01</leafValues></_>
        <_>
          <internalNodes>
            0 -1 65 -746850305 -143142113 1896141535 -545327234
            -770203443 -632584110 -1027096082 -536944644</internalNodes>
          <leafValues>
            -7.3515588045120239e-01 4.5198553800582886e-01</leafValues></_>
        <_>
          <internalNodes>
            0 -1 48 -782862369 301910751 184680543 188622794 -2122088309
            -1344831141 -486025045 -1122</internalNodes>
          <leafValues>
            -6.4430356025695801e-01 4.4866129755973816e-01</leafValues></_>
        <_>
          <internalNodes>
            0 -1 88 -214181377 -69409895 196830 -738926564 -1070624562
            -1841166335 -508002261 -50577088</internalNodes>
          <leafValues>
            -6.9104224443435669e-01 4.8389691114425659e-01</leafValues></_></weakClassifiers></_>
    <!-- stage 7 -->
    <_>
      <maxWeakCount>7</maxWeakCount>
      <stageThreshold>-1.7440354824066162e+00</stageThreshold>
      <weakClassifiers>
        <_>
          <internalNodes>
            0 -1 138 1073690623 -237511793 -788404129 -648031361
            1406093999 1884269403 468680651 -1048577</internalNodes>
          <leafValues>
            -8.2584655284881592e-01 3.0214425921440125e-01</leafValues></_>
        <_>
          <internalNodes>
            0 -1 29 -12583937 -572863041 -577241092 -539300904
            -1819298081 -137395461 -13897793 -16385</internalNodes>
          <leafValues>
            -7.5259667634963989e-01 3.9059451222419739e-01</leafValues></_>
        <_>
          <internalNodes>
            0 -1 54 -548405761 -719492266 -551553028 -540016643
            -2130600005 1081115195 -19 -1</internalNodes>
          <leafValues>
            -7.1421051025390625e-01 3.6169990897178650e-01</leafValues></_>
        <_>
          <internalNodes>
            0 -1 27 273418665 617568714 419501550 2111747549 -1165312065
            466264522 -924089409 -1074031749</internalNodes>
          <leafValues>
            -6.2309646606445313e-01 4.3824771046638489e-01</leafValues></_>
        <_>
          <internalNodes>
            0 -1 77 -67109377 -470896132 1128731388 -285956628 -41222401
            -1611349858 -381889996 -121050124</internalNodes>
          <leafValues>
            -8.1011694669723511e-01 3.5857185721397400e-01</leafValues></_>
        <_>
          <internalNodes>
            0 -1 119 -1756908545 -140009467 1435100583 -216762853
            1092433341 -1147428629 1253007357 -5243905</internalNodes>
          <leafValues>
            -5.4753100872039795e-01 4.9258568882942200e-01</leafValues></_>
        <_>
          <internalNodes>
            0 -1 0 -70550530 -547773456 -1321185131 2144834268
            -1727008872 -1709927800 -347362904 1222674600</internalNodes>
          <leafValues>
            -5.9789806604385376e-01 4.2790186405181885e-01</leafValues></_></weakClassifiers></_>
    <!-- stage 8 -->
    <_>
      <maxWeakCount>7</maxWeakCount>
      <stageThreshold>-1.9176120758056641e+00</stageThreshold>
      <weakClassifiers>
        <_>
          <internalNodes>
            0 -1 120 1030222779 -614481093 -2130410229 -716464101
            2070113199 -876655985 -2129921 -1</internalNodes>
          <leafValues>
            -7.5527155399322510e-01 3.5949367284774780e-01</leafValues></_>
        <_>
          <internalNodes>
            0 -1 46 -788398209 1900019979 -103809026 -144703489
            1090551899 128 -1438916865 -74448897</internalNodes>
          <leafValues>
            -7.4892592430114746e-01 3.4380674362182617e-01</leafValues></_>
        <_>
          <internalNodes>
            0 -1 21 1073690111 270305262 -2029797031 -1107362854
            -890010949 -1007785825 -1818263094 532675583</internalNodes>
          <leafValues>
            -8.0839681625366211e-01 3.1616002321243286e-01</leafValues></_>
        <_>
          <internalNodes>
            0 -1 122 1296511735 -204212711 554197085 -251455025
            292886525 -6610037 2074690296 -5273155</internalNodes>
          <leafValues>
            -6.1666476726531982e-01 4.2108097672462463e-01</leafValues></_>
        <_>
          <internalNodes>
            0 -1 62 -1745365673 -44109540 1090715649 -555814124
            -802842431 -1018445817 1451344137 -17508</internalNodes>
          <leafValues>
            -6.2730318307876587e-01 3.6253651976585388e-01</leafValues></_>
        <_>
          <internalNodes>
            0 -1 84 -782895617 1363218701 17174638 -925163267 -795899841
            -2120679287 -1968575819 -69489923</internalNodes>
          <leafValues>
            -6.6860616207122803e-01 3.6262607574462891e-01</leafValues></_>
        <_>
          <internalNodes>
            0 -1 7 139338477 726401344 -2147483647 828846213 -1069301617
            50536451 -465368950 1072641963</internalNodes>
          <leafValues>
            -8.8597846031188965e-01 2.9859909415245056e-01</leafValues></_></weakClassifiers></_>
    <!-- stage 9 -->
    <_>
      <maxWeakCount>9</maxWeakCount>
      <stageThreshold>-2.2665588855743408e+00</stageThreshold>
      <weakClassifiers>
        <_>
          <internalNodes>
            0 -1 101 -770180133 1359282183 1359073630 -788020454
            1111748797 -1977382373 -1716786180 -263233</internalNodes>
          <leafValues>
            -8.6507260799407959e-01 -3.4220531582832336e-02</leafValues></_>
        <_>
          <internalNodes>
            0 -1 130 -203693633 -175525758 167940501 -779451260
            -1953789730 -1148515305 -2105028180 -258678620</internalNodes>
          <leafValues>
            -6.1406928300857544e-01 3.8676306605339050e-01</leafValues></_>
        <_>
          <internalNodes>
            0 -1 51 -685842721 -2700914 -1647978145 453034570 1208085407
            -1177714481 -394007846 984253134</internalNodes>
          <leafValues>
            -6.5336787700653076e-01 3.8367477059364319e-01</leafValues></_>
        <_>
          <internalNodes>
            0 -1 138 987774942 -719732719 1196375 1539019601 545415339
            421200515 785218083 1006582767</internalNodes>
          <leafValues>
            -7.1092122793197632e-01 3.4404933452606201e-01</leafValues></_>
        <_>
          <internalNodes>
            0 -1 40 -216968745 1666470204 1426118876 -598715906 82 320
            16896215 -1659634721</internalNodes>
          <leafValues>
            -8.7230437994003296e-01 2.8179612755775452e-01</leafValues></_>
        <_>
          <internalNodes>
            0 -1 18 939473918 2032538134 1073840402 -2100965 1484817031
            -1861778678 1074426267 2074026389</internalNodes>
          <leafValues>
            -5.5306833982467651e-01 3.5345143079757690e-01</leafValues></_>
        <_>
          <internalNodes>
            0 -1 67 -147078916 299467487 -1751789217 -683783782
            -475406916 -343834336 -912327780 -1149359958</internalNodes>
          <leafValues>
            -5.6881278753280640e-01 4.1575285792350769e-01</leafValues></_>
        <_>
          <internalNodes>
            0 -1 97 -631893505 2012550536 -1307258580 -574647936
            -754875641 1594504321 -1101993854 -321076568</internalNodes>
          <leafValues>
            -5.0687599182128906e-01 3.6676588654518127e-01</leafValues></_>
        <_>
          <internalNodes>
            0 -1 74 -604905986 -670035903 -1022242308 -780021753
            -743571603 -2013101430 1528526632 -1073762901</internalNodes>
          <leafValues>
            -7.2383630275726318e-01 2.4910984933376312e-01</leafValues></_></weakClassifiers></_>
    <!-- stage 10 -->
    <_>
      <maxWeakCount>8</maxWeakCount>
      <stageThreshold>-1.7599548101425171e+00</stageThreshold>
      <weakClassifiers>
        <_>
          <internalNodes>
            0 -1 146 830488316 -61036 -103656961 -77645411 1790161578
            -75497342 -1198540101 -29957</internalNodes>
          <leafValues>
            -7.8180551528930664e-01 1.5509039163589478e-01</leafValues></_>
        <_>
          <internalNodes>
            0 -1 117 962068479 -721305521 1090553115 1368643603
            1977709557 -72364354 -5537936 -4194305</internalNodes>
          <leafValues>
            -7.5341421365737915e-01 2.2911965847015381e-01</leafValues></_>
        <_>
          <internalNodes>
            0 -1 0 -35986534 -170049510 -1853681287 -40419171 -914124306
            -1130329976 -1952601928 -657979224</internalNodes>
          <leafValues>
            -5.3709614276885986e-01 4.1162043809890747e-01</leafValues></_>
        <_>
          <internalNodes>
            0 -1 58 -255346689 1023824847 -2130258465 196083854
            -1031738129 -72384341 -1147474952 -1410421782</internalNodes>
          <leafValues>
            -6.2457048892974854e-01 3.6440411210060120e-01</leafValues></_>
        <_>
          <internalNodes>
            0 -1 112 -607125505 -754810847 -2139027122 1103675988
            -508824655 -1065123709 -509041780 -197764</internalNodes>
          <leafValues>
            -8.2630199193954468e-01 2.6744642853736877e-01</leafValues></_>
        <_>
          <internalNodes>
            0 -1 24 467079674 697992330 285454577 2111771073 -503280917
            -607059830 -1190944001 2077985516</internalNodes>
          <leafValues>
            -6.5204423666000366e-01 3.3288553357124329e-01</leafValues></_>
        <_>
          <internalNodes>
            0 -1 72 -741359153 2002735774 -2143158190 -1090874916
            671285770 1644363907 -1333746808 -537068596</internalNodes>
          <leafValues>
            -7.5051671266555786e-01 2.3851329088211060e-01</leafValues></_>
        <_>
          <internalNodes>
            0 -1 113 1997797375 -753663722 823234946 -249560829 21063101
            -1145337214 1610299477 1275030495</internalNodes>
          <leafValues>
            -7.3403590917587280e-01 2.4179202318191528e-01</leafValues></_></weakClassifiers></_>
    <!-- stage 11 -->
    <_>
      <maxWeakCount>9</maxWeakCount>
      <stageThreshold>-1.7099016904830933e+00</stageThreshold>
      <weakClassifiers>
        <_>
          <internalNodes>
            0 -1 136 932551647 -145512295 -1610498037 -708736837
            2043409135 -1157431165 -368051201 -16385</internalNodes>
          <leafValues>
            -7.3838859796524048e-01 3.4039735794067383e-01</leafValues></_>
        <_>
          <internalNodes>
            0 -1 145 34671855 -144228197 -2146367345 -115379755
            2032811775 -79969894 -877974785 -1141917233</internalNodes>
          <leafValues>
            -5.8432197570800781e-01 3.5783118009567261e-01</leafValues></_>
        <_>
          <internalNodes>
            0 -1 75 1396833533 286330961 1360092510 1427986711
            -141706833 -71859831 -300995928 267321384</internalNodes>
          <leafValues>
            -6.9196575880050659e-01 3.0182829499244690e-01</leafValues></_>
        <_>
          <internalNodes>
            0 -1 30 824252605 536447327 830673149 2144809361 -1165375096
            -206192504 -1008342337 -1073743681</internalNodes>
          <leafValues>
            -4.4094011187553406e-01 4.5547068119049072e-01</leafValues></_>
        <_>
          <internalNodes>
            0 -1 61 1931417439 -613461890 16845150 -296460068
            -1022164856 -653590496 -1069481330 -21180200</internalNodes>
          <leafValues>
            -6.1746221780776978e-01 3.4564587473869324e-01</leafValues></_>
        <_>
          <internalNodes>
            0 -1 73 1073796060 -1760263916 553652507 -245444270
            -745134450 454754974 1191963580 -1146196312</internalNodes>
          <leafValues>
            -7.9943633079528809e-01 2.0298525691032410e-01</leafValues></_>
        <_>
          <internalNodes>
            0 -1 123 2074119356 1632719107 1090568217 831754263
            1763777021 -355255799 -1146406151 1522206987</internalNodes>
          <leafValues>
            -5.0275927782058716e-01 3.3287245035171509e-01</leafValues></_>
        <_>
          <internalNodes>
            0 -1 37 -350533777 835015041 -1862254445 -166063853
            -476374550 -1719664223 998806506 -535797208</internalNodes>
          <leafValues>
            -4.9313449859619141e-01 3.6156582832336426e-01</leafValues></_>
        <_>
          <internalNodes>
            0 -1 142 18878616 -1719529336 285229523 -36925289 50868397
            -103102328 1639975613 -70319165</internalNodes>
          <leafValues>
            -4.4584280252456665e-01 4.2404302954673767e-01</leafValues></_></weakClassifiers></_>
    <!-- stage 12 -->
    <_>
      <maxWeakCount>11</maxWeakCount>
      <stageThreshold>-2.1334030628204346e+00</stageThreshold>
      <weakClassifiers>
        <_>
          <internalNodes>
            0 -1 130 -35917313 -36204529 -1543449123 -168853350
            -1702432034 -1199046005 -71567122 -72302402</internalNodes>
          <leafValues>
            -7.1577572822570801e-01 1.3615024089813232e-01</leafValues></_>
        <_>
          <internalNodes>
            0 -1 146 75511512 -607629876 -1809162785 -1080163599
            1623421679 -132972368 -75256897 -1237256</internalNodes>
          <leafValues>
            -5.9674209356307983e-01 2.8850090503692627e-01</leafValues></_>
        <_>
          <internalNodes>
            0 -1 93 -788278276 1426137088 -1828630088 1426424067
            -542377547 -96328413 -74711644 -1315901</internalNodes>
          <leafValues>
            -7.7296286821365356e-01 2.2295196354389191e-01</leafValues></_>
        <_>
          <internalNodes>
            0 -1 8 1121861855 215929343 82959 1056920263 -1065139569
            1032257706 1619771405 1071636623</internalNodes>
          <leafValues>
            -7.0780259370803833e-01 2.9598483443260193e-01</leafValues></_>
        <_>
          <internalNodes>
            0 -1 26 30605674 65340421 352388106 2077364674 16889336
            -1415921596 1747675642 -73729368</internalNodes>
          <leafValues>
            -5.4761826992034912e-01 2.6403090357780457e-01</leafValues></_>
        <_>
          <internalNodes>
            0 -1 78 1900270079 1078083679 423624862 1492148428
            -2146258179 -1610481662 406527828 -17204268</internalNodes>
          <leafValues>
            -8.2355993986129761e-01 2.2039669752120972e-01</leafValues></_>
        <_>
          <internalNodes>
            0 -1 33 -623917318 286310551 1351698895 489194623
            -1073422165 -1429512182 -2137879877 724181742</internalNodes>
          <leafValues>
            -5.7186543941497803e-01 2.4694855511188507e-01</leafValues></_>
        <_>
          <internalNodes>
            0 -1 139 497981695 -573959 1073659391 -545275915 2105403388
            -131073 -33636870 -84482</internalNodes>
          <leafValues>
            -2.8389352560043335e-01 5.6331110000610352e-01</leafValues></_>
        <_>
          <internalNodes>
            0 -1 59 -669265436 427884680 1694604250 -673982085
            -100546392 -183107452 -292775604 1205576234</internalNodes>
          <leafValues>
            -6.6635733842849731e-01 2.4334532022476196e-01</leafValues></_>
        <_>
          <internalNodes>
            0 -1 96 1662066719 1657262493 5243035 1647755599 34331275
            -1187802958 -374683196 -1153636148</internalNodes>
          <leafValues>
            -5.5058008432388306e-01 2.8936439752578735e-01</leafValues></_>
        <_>
          <internalNodes>
            0 -1 49 124060208 1105498600 2014449938 -1323613985
            -1736204081 -1300225912 -1849108032 -1144633202</internalNodes>
          <leafValues>
            -4.9583119153976440e-01 3.4253150224685669e-01</leafValues></_></weakClassifiers></_>
    <!-- stage 13 -->
    <_>
      <maxWeakCount>11</maxWeakCount>
      <stageThreshold>-1.8909649848937988e+00</stageThreshold>
      <weakClassifiers>
        <_>
          <internalNodes>
            0 -1 135 1071856383 -650919917 66931 1595638175 1535240687
            1502281887 -124781905 -1064961</internalNodes>
          <leafValues>
            -7.3525470495223999e-01 1.2179487198591232e-01</leafValues></_>
        <_>
          <internalNodes>
            0 -1 147 572789424 -795045604 -1794583043 -136390411
            991965951 -897531904 -209634305 -74497545</internalNodes>
          <leafValues>
            -5.6552726030349731e-01 2.6244932413101196e-01</leafValues></_>
        <_>
          <internalNodes>
            0 -1 28 1365443831 831783319 -2147381238 402264831
            -930512709 -1349991253 -1945927510 -5317922</internalNodes>
          <leafValues>
            -5.9872645139694214e-01 2.7776232361793518e-01</leafValues></_>
        <_>
          <internalNodes>
            0 -1 1 -78208484 -552398354 1880519113 387433433 -636647025
            -83193820 688434063 210239656</internalNodes>
          <leafValues>
            -6.2694483995437622e-01 2.4920167028903961e-01</leafValues></_>
        <_>
          <internalNodes>
            0 -1 104 -772146209 -532365052 25265210 -396865256
            -1573350689 -402063360 -1580409862 2092257680</internalNodes>
          <leafValues>
            -5.6114935874938965e-01 2.9398620128631592e-01</leafValues></_>
        <_>
          <internalNodes>
            0 -1 47 -648556321 -2440857 1078182239 -20003380 1073741824
            -2113732608 134316042 -539256818</internalNodes>
          <leafValues>
            -6.3548713922500610e-01 2.5622674822807312e-01</leafValues></_>
        <_>
          <internalNodes>
            0 -1 132 -881066521 -1073823778 -1476493579 -135790977
            1073725359 -1107955721 2139043822 -68368906</internalNodes>
          <leafValues>
            -3.1077921390533447e-01 5.2004808187484741e-01</leafValues></_>
        <_>
          <internalNodes>
            0 -1 60 -517815162 -1287485301 1074057727 -2126327239
            67647618 957001817 -1979151890 817556206</internalNodes>
          <leafValues>
            -4.5707991719245911e-01 3.4757807850837708e-01</leafValues></_>
        <_>
          <internalNodes>
            0 -1 114 2001027202 1377037 554767825 -216072061 -1194721192
            1233780847 -2138281571 199954569</internalNodes>
          <leafValues>
            -4.7749140858650208e-01 3.2034882903099060e-01</leafValues></_>
        <_>
          <internalNodes>
            0 -1 14 1992755420 752766835 82305 -751861758 -763334007
            -1686011705 -637474613 1070544075</internalNodes>
          <leafValues>
            -5.4537326097488403e-01 2.8009042143821716e-01</leafValues></_>
        <_>
          <internalNodes>
            0 -1 70 268521979 1359020032 90582 17023281 -2147442688
            8388738 134344437 -921973841</internalNodes>
          <leafValues>
            -5.7640165090560913e-01 2.5573882460594177e-01</leafValues></_></weakClassifiers></_>
    <!-- stage 14 -->
    <_>
      <maxWeakCount>12</maxWeakCount>
      <stageThreshold>-1.6365209817886353e+00</stageThreshold>
      <weakClassifiers>
        <_>
          <internalNodes>
            0 -1 138 870496975 -619843171 -2130493429 -116698805
            831176399 556763275 2060152811 -70255685</internalNodes>
          <leafValues>
            -7.6137208938598633e-01 -3.0694669112563133e-02</leafValues></_>
        <_>
          <internalNodes>
            0 -1 43 1343344983 269488400 286578014 -787394209 41371
            66048 1360118143 1191302111</internalNodes>
          <leafValues>
            -6.5268337726593018e-01 1.2346634268760681e-01</leafValues></_>
        <_>
          <internalNodes>
            0 -1 126 -4722728 -1180169 2122264430 -537264138 -134369317
            -163980 -1073741912 -40850222</internalNodes>
          <leafValues>
            -3.1774848699569702e-01 4.2548963427543640e-01</leafValues></_>
        <_>
          <internalNodes>
            0 -1 107 -245959684 1358954579 1090556381 -787869680
            809476495 311066659 2080100844 -68284688</internalNodes>
          <leafValues>
            -6.7515516281127930e-01 2.0719254016876221e-01</leafValues></_>
        <_>
          <internalNodes>
            0 -1 140 985734843 1934295317 1098990107 -251555543
            860169087 -2136276847 -309910581 1073687487</internalNodes>
          <leafValues>
            -4.9309152364730835e-01 3.0155390501022339e-01</leafValues></_>
        <_>
          <internalNodes>
            0 -1 92 1108603709 1114129 456253823 1614413942 414167983
            -1978965855 -1286621025 796194548</internalNodes>
          <leafValues>
            -3.7969705462455750e-01 4.0052178502082825e-01</leafValues></_>
        <_>
          <internalNodes>
            0 -1 27 269755786 618815822 420544966 2102825414 -520046135
            -1095221115 1612958395 -1381313824</internalNodes>
          <leafValues>
            -5.6290775537490845e-01 2.2775214910507202e-01</leafValues></_>
        <_>
          <internalNodes>
            0 -1 48 -649865577 1465812063 1082413343 180007759
            -2147287039 -1685979136 65544 -2361716</internalNodes>
          <leafValues>
            -5.5992275476455688e-01 2.3833425343036652e-01</leafValues></_>
        <_>
          <internalNodes>
            0 -1 80 -804812080 1503695040 1363431763 -2091007973
            1778909256 453246976 -899942196 -876919986</internalNodes>
          <leafValues>
            -3.7954172492027283e-01 3.6177438497543335e-01</leafValues></_>
        <_>
          <internalNodes>
            0 -1 76 352383487 1641025810 -2130505220 1279349114
            -1974951191 -1174405112 -1742168075 1727852757</internalNodes>
          <leafValues>
            -5.1771527528762817e-01 2.7511873841285706e-01</leafValues></_>
        <_>
          <internalNodes>
            0 -1 142 727515312 1461108818 -804095844 855642137
            -475513921 2066303128 -1599563077 -1075999797</internalNodes>
          <leafValues>
            -3.7560024857521057e-01 3.8110911846160889e-01</leafValues></_>
        <_>
          <internalNodes>
            0 -1 98 -443419236 1363247489 -1056861860 -653230059
            -108713479 -382484477 673802788 770376394</internalNodes>
          <leafValues>
            -7.8224802017211914e-01 1.7622093856334686e-01</leafValues></_></weakClassifiers></_>
    <!-- stage 15 -->
    <_>
      <maxWeakCount>12</maxWeakCount>
      <stageThreshold>-1.8983457088470459e+00</stageThreshold>
      <weakClassifiers>
        <_>
          <internalNodes>
            0 -1 129 1049276411 -237416391 -1832791973 -610974197
            2075602671 -72882001 -74716225 -29957</internalNodes>
          <leafValues>
            -7.2658228874206543e-01 -6.1471860855817795e-02</leafValues></_>
        <_>
          <internalNodes>
            0 -1 130 -645147751 -709001045 152621172 -784957346
            -1971207457 -1414832110 -1479349522 -661339498</internalNodes>
          <leafValues>
            -4.4953310489654541e-01 3.0597227811813354e-01</leafValues></_>
        <_>
          <internalNodes>
            0 -1 25 631117020 496407430 -1723756533 2144915600
            -653538933 -545078909 -886899777 1005558463</internalNodes>
          <leafValues>
            -7.0926904678344727e-01 1.8250754475593567e-01</leafValues></_>
        <_>
          <internalNodes>
            0 -1 4 -1857990379 -833220272 285278480 -296349424 33554433
            -1090449408 285278481 -11075437</internalNodes>
          <leafValues>
            -8.6884617805480957e-01 1.9546031951904297e-01</leafValues></_>
        <_>
          <internalNodes>
            0 -1 6 -276666098 1976664714 1895842203 1939227020
            -611706648 -1140685944 -2113681000 -275471452</internalNodes>
          <leafValues>
            -3.4439685940742493e-01 3.4244838356971741e-01</leafValues></_>
        <_>
          <internalNodes>
            0 -1 64 1930421683 1054377027 285212677 -1307258792
            -2147450736 51056640 -1862172534 -564887440</internalNodes>
          <leafValues>
            -7.6376378536224365e-01 1.7758421599864960e-01</leafValues></_>
        <_>
          <internalNodes>
            0 -1 111 -13828101 787345400 -1572946 1256587240 -4260357
            2146959222 -1095962642 800185831</internalNodes>
          <leafValues>
            -3.3439072966575623e-01 3.9634481072425842e-01</leafValues></_>
        <_>
          <internalNodes>
            0 -1 128 172569544 -670859263 229382 1090765315 1535455869
            -1459421053 1250650193 999239179</internalNodes>
          <leafValues>
            -6.7490720748901367e-01 2.1104595065116882e-01</leafValues></_>
        <_>
          <internalNodes>
            0 -1 106 1360870841 1613463569 -1874700230 2144567323
            193699883 -75267711 1085268178 2108223536</internalNodes>
          <leafValues>
            -5.2402281761169434e-01 2.1288914978504181e-01</leafValues></_>
        <_>
          <internalNodes>
            0 -1 68 -746264374 -1167794170 -2063597537 601915798
            -1065332672 687865874 -1986882820 172671114</internalNodes>
          <leafValues>
            -5.0564223527908325e-01 2.4683935940265656e-01</leafValues></_>
        <_>
          <internalNodes>
            0 -1 133 1027194366 -163969 1065320439 2147483511 1073020927
            -114819 -1074331649 804237039</internalNodes>
          <leafValues>
            -2.8317880630493164e-01 4.7019669413566589e-01</leafValues></_>
        <_>
          <internalNodes>
            0 -1 0 -909976614 -42889216 -1873782631 2115441560
            -1586699320 -1094541182 -846619462 -2132778870</internalNodes>
          <leafValues>
            -4.4384434819221497e-01 2.9856994748115540e-01</leafValues></_></weakClassifiers></_>
    <!-- stage 16 -->
    <_>
      <maxWeakCount>14</maxWeakCount>
      <stageThreshold>-1.7314211130142212e+00</stageThreshold>
      <weakClassifiers>
        <_>
          <internalNodes>
            0 -1 17 2069829818 2077426361 17125471 2144534685
            -1184949826 -618971048 558631531 -6529</internalNodes>
          <leafValues>
            -7.0464134216308594e-01 -7.0631973445415497e-02</leafValues></_>
        <_>
          <internalNodes>
            0 -1 131 -1030909701 -1826914287 1689613 2135232591
            -644898561 -75363944 445618911 993306774</internalNodes>
          <leafValues>
            -4.7507134079933167e-01 2.4579310417175293e-01</leafValues></_>
        <_>
          <internalNodes>
            0 -1 35 -971649282 425394327 -648939554 231604288
            -1073694838 -801013629 -338969972 181019146</internalNodes>
          <leafValues>
            -7.8910416364669800e-01 1.4332057535648346e-01</leafValues></_>
        <_>
          <internalNodes>
            0 -1 143 948972508 -577040248 -1073184625 2031849781
            992688926 -91549544 1319416724 536848603</internalNodes>
          <leafValues>
            -6.3505035638809204e-01 2.0733702182769775e-01</leafValues></_>
        <_>
          <internalNodes>
            0 -1 82 -1694445065 -176418736 135923114 1275528332
            -2121752065 -1877245653 815332015 1753360757</internalNodes>
          <leafValues>
            -4.3911093473434448e-01 2.7128139138221741e-01</leafValues></_>
        <_>
          <internalNodes>
            0 -1 69 -229383696 -1374437373 508897427 624984514
            1077959688 140182018 1781553354 1785447946</internalNodes>
          <leafValues>
            -4.0301826596260071e-01 3.0878645181655884e-01</leafValues></_>
        <_>
          <internalNodes>
            0 -1 2 -787757093 1099145733 16777985 -825110249 -2130541949
            -234781687 -1702780286 140201219</internalNodes>
          <leafValues>
            -6.5782141685485840e-01 1.7518562078475952e-01</leafValues></_>
        <_>
          <internalNodes>
            0 -1 13 -848427872 1435741947 -37012 -236376322 2096304572
            -1275626787 -286082307 -42852304</internalNodes>
          <leafValues>
            -2.9363331198692322e-01 4.4040986895561218e-01</leafValues></_>
        <_>
          <internalNodes>
            0 -1 57 -837197754 -779419054 1346461919 1045713103
            -1591727958 -314339323 436445314 -337460601</internalNodes>
          <leafValues>
            -4.4618865847587585e-01 2.6543703675270081e-01</leafValues></_>
        <_>
          <internalNodes>
            0 -1 71 269553917 28410055 286380204 2570464 -2147385295
            -2147483455 270252917 -745991816</internalNodes>
          <leafValues>
            -6.8617516756057739e-01 1.6506572067737579e-01</leafValues></_>
        <_>
          <internalNodes>
            0 -1 124 -73003990 242974655 805252851 939343853 -682593116
            536330229 2137419260 -1880404854</internalNodes>
          <leafValues>
            -3.2368150353431702e-01 3.8190686702728271e-01</leafValues></_>
        <_>
          <internalNodes>
            0 -1 108 -746347672 -775872384 1073743019 -1811791613
            -654214227 -1191180286 1536092565 453968873</internalNodes>
          <leafValues>
            -5.3922790288925171e-01 2.2905200719833374e-01</leafValues></_>
        <_>
          <internalNodes>
            0 -1 31 339819520 1775404035 1493288337 994329225
            -1023311717 -1735835519 -108475982 -1182017378</internalNodes>
          <leafValues>
            -4.4007331132888794e-01 2.7883762121200562e-01</leafValues></_>
        <_>
          <internalNodes>
            0 -1 144 -1264342388 -4755468 2147434495 -1073741954
            1868359671 -1108345417 -25364481 -92258339</internalNodes>
          <leafValues>
            -3.0554571747779846e-01 4.1261252760887146e-01</leafValues></_></weakClassifiers></_>
    <!-- stage 17 -->
    <_>
      <maxWeakCount>13</maxWeakCount>
      <stageThreshold>-1.9060411453247070e+00</stageThreshold>
      <weakClassifiers>
        <_>
          <internalNodes>
            0 -1 23 1446975579 -644471850 173031825 -136118218 418561019
            -28605782 1782643386 -4211768</internalNodes>
          <leafValues>
            -6.7205542325973511e-01 -4.8368953168392181e-02</leafValues></_>
        <_>
          <internalNodes>
            0 -1 134 993014686 419496783 53251 1627492619 732390031
            -1333051189 674175623 1005534143</internalNodes>
          <leafValues>
            -7.0735627412796021e-01 1.0479878634214401e-01</leafValues></_>
        <_>
          <internalNodes>
            0 -1 99 -606088707 -719236881 -1051338305 -40861677
            -611330369 -1079541645 1710828424 1280246209</internalNodes>
          <leafValues>
            -4.8734080791473389e-01 2.3751330375671387e-01</leafValues></_>
        <_>
          <internalNodes>
            0 -1 94 51511324 1283342407 1109547679 1621278818 25887391
            1502282440 698038756 2028263620</internalNodes>
          <leafValues>
            -7.9811900854110718e-01 1.6465009748935699e-01</leafValues></_>
        <_>
          <internalNodes>
            0 -1 39 286331157 1094778896 268505162 1075384598 82019
            805371905 4212 -216936165</internalNodes>
          <leafValues>
            -6.5399938821792603e-01 1.7620117962360382e-01</leafValues></_>
        <_>
          <internalNodes>
            0 -1 0 -1010054182 -143280805 -1861533255 393675021
            -662337330 -1702721532 -2004309572 684234976</internalNodes>
          <leafValues>
            -4.7667944431304932e-01 2.1725331246852875e-01</leafValues></_>
        <_>
          <internalNodes>
            0 -1 125 538246496 -87031799 285294750 -653819893 423719650
            -1315389312 -626956576 -555767671</internalNodes>
          <leafValues>
            -4.3141603469848633e-01 2.5123453140258789e-01</leafValues></_>
        <_>
          <internalNodes>
            0 -1 127 1333244554 2013200383 1073741823 -1073792003
            2004353023 -50177 -2049 263602110</internalNodes>
          <leafValues>
            -2.5000891089439392e-01 4.3361282348632813e-01</leafValues></_>
        <_>
          <internalNodes>
            0 -1 110 386691471 32897 9535718 587469262 545843384
            428413857 1168081644 1689909745</internalNodes>
          <leafValues>
            -3.9020782709121704e-01 3.1250208616256714e-01</leafValues></_>
        <_>
          <internalNodes>
            0 -1 50 -1827491692 508592299 1073791041 1603854918
            537366718 -1717387135 159551723 1058701450</internalNodes>
          <leafValues>
            -4.6810260415077209e-01 2.3506964743137360e-01</leafValues></_>
        <_>
          <internalNodes>
            0 -1 32 805640260 275776328 -788430389 823423758 -2129731198
            -1710342142 1376059462 1494097930</internalNodes>
          <leafValues>
            -6.7446857690811157e-01 1.5744662284851074e-01</leafValues></_>
        <_>
          <internalNodes>
            0 -1 85 1359350613 1292075287 1081499 -80428733 168919671
            185802883 805691790 1845285548</internalNodes>
          <leafValues>
            -3.8614889979362488e-01 2.8939467668533325e-01</leafValues></_>
        <_>
          <internalNodes>
            0 -1 149 -1068563928 1368085642 -1878720406 -1450106085
            1108347880 864225344 273844959 49268266</internalNodes>
          <leafValues>
            -3.7474185228347778e-01 3.2253736257553101e-01</leafValues></_></weakClassifiers></_>
    <!-- stage 18 -->
    <_>
      <maxWeakCount>13</maxWeakCount>
      <stageThreshold>-1.7482451200485229e+00</stageThreshold>
      <weakClassifiers>
        <_>
          <internalNodes>
            0 -1 11 -705955586 -49733837 -2130640611 -170573219
            977569962 -71040374 1789331915 1532691167</internalNodes>
          <leafValues>
            -6.6999334096908569e-01 -7.2210066020488739e-02</leafValues></_>
        <_>
          <internalNodes>
            0 -1 66 -1005131809 -556893613 -2004712947 -119342209
            -1056795958 -636813183 -645691237 -135234610</internalNodes>
          <leafValues>
            -6.0165548324584961e-01 1.5046024322509766e-01</leafValues></_>
        <_>
          <internalNodes>
            0 -1 19 433530094 149434803 86053332 1470364445 597328123
            -1081540478 466092467 -1142966609</internalNodes>
          <leafValues>
            -5.6251627206802368e-01 2.0671714842319489e-01</leafValues></_>
        <_>
          <internalNodes>
            0 -1 3 1364267267 -217055216 16842754 1845498112 -1861222243
            -1157488126 285356955 -1162671941</internalNodes>
          <leafValues>
            -4.7549432516098022e-01 2.6425015926361084e-01</leafValues></_>
        <_>
          <internalNodes>
            0 -1 100 -783166465 1125126416 16781660 1074823352
            -1576552199 -2002583512 1208606257 -622994987</internalNodes>
          <leafValues>
            -5.3678846359252930e-01 2.1684208512306213e-01</leafValues></_>
        <_>
          <internalNodes>
            0 -1 121 458207882 287014921 1073774594 21037312 1896297249
            -1047887701 671836768 1789885099</internalNodes>
          <leafValues>
            -6.8012303113937378e-01 1.4763006567955017e-01</leafValues></_>
        <_>
          <internalNodes>
            0 -1 132 1226478251 -1988001071 -778956643 -1789984768
            1208124078 -1173747668 1218256632 -601879082</internalNodes>
          <leafValues>
            -3.5581046342849731e-01 3.0286103487014771e-01</leafValues></_>
        <_>
          <internalNodes>
            0 -1 33 -250675969 1361234061 344142 956825687 -670321525
            579534880 1208734152 1966554</internalNodes>
          <leafValues>
            -5.2213180065155029e-01 2.3022471368312836e-01</leafValues></_>
        <_>
          <internalNodes>
            0 -1 16 747505604 2065449862 545443843 861131287 -1832685365
            -150761472 478372099 1002375467</internalNodes>
          <leafValues>
            -6.1354672908782959e-01 1.8313309550285339e-01</leafValues></_>
        <_>
          <internalNodes>
            0 -1 52 861045460 1163314561 -1878851520 1346044435
            -771456892 -394199040 -2147450749 1561791104</internalNodes>
          <leafValues>
            -4.0860280394554138e-01 2.8577920794487000e-01</leafValues></_>
        <_>
          <internalNodes>
            0 -1 90 391697369 -384810928 -716701251 1080397902
            -226327900 -1291255663 2048477823 1009586425</internalNodes>
          <leafValues>
            -4.3009045720100403e-01 2.6557147502899170e-01</leafValues></_>
        <_>
          <internalNodes>
            0 -1 109 -1062712700 307906629 1073758396 1026056832
            -931122520 -1878490622 1634275552 730464524</internalNodes>
          <leafValues>
            -5.9415757656097412e-01 2.0006506145000458e-01</leafValues></_>
        <_>
          <internalNodes>
            0 -1 102 -1861626919 -1005387637 117495826 -1828569084
            34115630 -209518077 809759266 1598574821</internalNodes>
          <leafValues>
            -5.6218367815017700e-01 2.0985731482505798e-01</leafValues></_></weakClassifiers></_>
    <!-- stage 19 -->
    <_>
      <maxWeakCount>13</maxWeakCount>
      <stageThreshold>-1.5720772743225098e+00</stageThreshold>
      <weakClassifiers>
        <_>
          <internalNodes>
            0 -1 130 -639905326 -204373822 268484836 1363280852
            -364131670 -1097119740 -1096578070 -258940758</internalNodes>
          <leafValues>
            -7.2979491949081421e-01 -1.8492673337459564e-01</leafValues></_>
        <_>
          <internalNodes>
            0 -1 34 -203494148 -619525947 269557783 151052868
            -2137603653 -125665278 -509181814 182158478</internalNodes>
          <leafValues>
            -5.5388277769088745e-01 1.2965227663516998e-01</leafValues></_>
        <_>
          <internalNodes>
            0 -1 141 80349268 -183435246 50388241 -585596909 168439985
            -1476394880 -1603436305 -1897399882</internalNodes>
          <leafValues>
            -3.6648380756378174e-01 3.0577367544174194e-01</leafValues></_>
        <_>
          <internalNodes>
            0 -1 89 -1878929217 268517394 16414 -1878949888 -2147305436
            -2147450749 -896927056 -1299453273</internalNodes>
          <leafValues>
            -5.9885060787200928e-01 2.3165827989578247e-01</leafValues></_>
        <_>
          <internalNodes>
            0 -1 56 1996947995 416584070 1073807649 422100994 42107011
            -2113699712 163970 -122709</internalNodes>
          <leafValues>
            -5.1141190528869629e-01 2.0854750275611877e-01</leafValues></_>
        <_>
          <internalNodes>
            0 -1 9 -1052144150 1103011251 2146725108 -176455949
            -1644363780 1873919996 1450047854 -1089399624</internalNodes>
          <leafValues>
            -3.2471090555191040e-01 3.6710777878761292e-01</leafValues></_>
        <_>
          <internalNodes>
            0 -1 116 -164494838 -1302659265 -41025 -46416327 -964887106
            1999388158 -293806402 866878122</internalNodes>
          <leafValues>
            -2.4413985013961792e-01 4.4100964069366455e-01</leafValues></_>
        <_>
          <internalNodes>
            0 -1 79 1402294521 -578280556 286261724 -187317680 12632160
            -1878982624 1107362013 2025128917</internalNodes>
          <leafValues>
            -4.0459549427032471e-01 2.7986583113670349e-01</leafValues></_>
        <_>
          <internalNodes>
            0 -1 36 -529165110 72499609 135337146 130416640 -2147383232
            1078100096 1535884938 260475652</internalNodes>
          <leafValues>
            -6.1084580421447754e-01 1.7068040370941162e-01</leafValues></_>
        <_>
          <internalNodes>
            0 -1 148 -251810364 -848871492 779982582 855584767
            -1183590681 2122313092 -696262930 -874801778</internalNodes>
          <leafValues>
            -2.1599991619586945e-01 5.1094746589660645e-01</leafValues></_>
        <_>
          <internalNodes>
            0 -1 81 -1845825327 -214798326 18055343 1268781265 50888877
            -628588536 704776604 342893415</internalNodes>
          <leafValues>
            -3.7917050719261169e-01 3.0222317576408386e-01</leafValues></_>
        <_>
          <internalNodes>
            0 -1 5 -1022901884 -116882688 16891917 1511080307 553779857
            420087942 153750170 439880360</internalNodes>
          <leafValues>
            -4.9293553829193115e-01 2.1890190243721008e-01</leafValues></_>
        <_>
          <internalNodes>
            0 -1 105 -537067523 1676476414 -131076 -185204744 -2294307
            -1141440519 1945499615 -1184410253</internalNodes>
          <leafValues>
            -2.7029970288276672e-01 4.1809219121932983e-01</leafValues></_></weakClassifiers></_></stages>
  <features>
    <_>
      <rect>
        0 0 1 1</rect></_>
    <_>
      <rect>
        0 0 1 2</rect></_>
    <_>
      <rect>
        0 0 2 3</rect></_>
    <_>
      <rect>
        0 0 4 1</rect></_>
    <_>
      <rect>
        0 0 4 5</rect></_>
    <_>
      <rect>
        0 1 1 2</rect></_>
    <_>
      <rect>
        0 2 1 1</rect></_>
    <_>
      <rect>
        0 2 1 6</rect></_>
    <_>
      <rect>
        0 2 2 6</rect></_>
    <_>
      <rect>
        0 3 1 2</rect></_>
    <_>
      <rect>
        0 3 4 3</rect></_>
    <_>
      <rect>
        0 4 1 2</rect></_>
    <_>
      <rect>
        0 4 3 5</rect></_>
    <_>
      <rect>
        0 5 1 1</rect></_>
    <_>
      <rect>
        0 5 1 5</rect></_>
    <_>
      <rect>
        0 5 2 5</rect></_>
    <_>
      <rect>
        0 6 1 4</rect></_>
    <_>
      <rect>
        0 7 1 2</rect></_>
    <_>
      <rect>
        0 7 1 3</rect></_>
    <_>
      <rect>
        0 8 1 2</rect></_>
    <_>
      <rect>
        0 8 1 3</rect></_>
    <_>
      <rect>
        0 8 2 4</rect></_>
    <_>
      <rect>
        0 8 5 4</rect></_>
    <_>
      <rect>
        0 9 1 1</rect></_>
    <_>
      <rect>
        0 9 1 2</rect></_>
    <_>
      <rect>
        0 9 1 3</rect></_>
    <_>
      <rect>
        0 10 1 1</rect></_>
    <_>
      <rect>
        0 11 1 1</rect></_>
    <_>
      <rect>
        0 11 2 3</rect></_>
    <_>
      <rect>
        0 11 5 3</rect></_>
    <_>
      <rect>
        0 12 1 1</rect></_>
    <_>
      <rect>
        0 13 1 1</rect></_>
    <_>
      <rect>
        0 13 1 2</rect></_>
    <_>
      <rect>
        0 14 3 2</rect></_>
    <_>
      <rect>
        0 14 4 2</rect></_>
    <_>
      <rect>
        0 14 6 2</rect></_>
    <_>
      <rect>
        0 17 6 1</rect></_>
    <_>
      <rect>
        1 0 1 1</rect></_>
    <_>
      <rect>
        1 0 4 6</rect></_>
    <_>
      <rect>
        1 0 5 5</rect></_>
    <_>
      <rect>
        1 0 5 6</rect></_>
    <_>
      <rect>
        1 0 6 6</rect></_>
    <_>
      <rect>
        1 1 6 5</rect></_>
    <_>
      <rect>
        1 1 6 6</rect></_>
    <_>
      <rect>
        1 2 5 6</rect></_>
    <_>
      <rect>
        1 2 6 6</rect></_>
    <_>
      <rect>
        1 5 6 5</rect></_>
    <_>
      <rect>
        1 8 4 4</rect></_>
    <_>
      <rect>
        1 11 3 3</rect></_>
    <_>
      <rect>
        1 13 1 1</rect></_>
    <_>
      <rect>
        1 14 1 2</rect></_>
    <_>
      <rect>
        1 14 4 2</rect></_>
    <_>
      <rect>
        2 2 1 3</rect></_>
    <_>
      <rect>
        2 2 3 6</rect></_>
    <_>
      <rect>
        2 5 6 5</rect></_>
    <_>
      <rect>
        2 8 2 4</rect></_>
    <_>
      <rect>
        2 10 1 3</rect></_>
    <_>
      <rect>
        2 14 3 1</rect></_>
    <_>
      <rect>
        2 14 3 2</rect></_>
    <_>
      <rect>
        2 14 6 2</rect></_>
    <_>
      <rect>
        3 17 3 1</rect></_>
    <_>
      <rect>
        4 0 2 5</rect></_>
    <_>
      <rect>
        4 0 2 6</rect></_>
    <_>
      <rect>
        4 0 5 4</rect></_>
    <_>
      <rect>
        4 6 1 4</rect></_>
    <_>
      <rect>
        4 8 2 4</rect></_>
    <_>
      <rect>
        4 10 2 2</rect></_>
    <_>
      <rect>
        4 14 4 2</rect></_>
    <_>
      <rect>
        4 17 3 1</rect></_>
    <_>
      <rect>
        4 17 4 1</rect></_>
    <_>
      <rect>
        5 0 5 6</rect></_>
    <_>
      <rect>
        5 4 4 3</rect></_>
    <_>
      <rect>
        5 7 1 4</rect></_>
    <_>
      <rect>
        5 11 3 3</rect></_>
    <_>
      <rect>
        5 11 5 3</rect></_>
    <_>
      <rect>
        5 14 5 2</rect></_>
    <_>
      <rect>
        6 0 3 3</rect></_>
    <_>
      <rect>
        6 0 3 4</rect></_>
    <_>
      <rect>
        6 0 3 5</rect></_>
    <_>
      <rect>
        6 3 2 3</rect></_>
    <_>
      <rect>
        6 17 4 1</rect></_>
    <_>
      <rect>
        7 0 1 1</rect></_>
    <_>
      <rect>
        7 0 2 2</rect></_>
    <_>
      <rect>
        7 0 3 6</rect></_>
    <_>
      <rect>
        7 4 4 3</rect></_>
    <_>
      <rect>
        7 9 2 2</rect></_>
    <_>
      <rect>
        7 14 3 2</rect></_>
    <_>
      <rect>
        8 0 2 5</rect></_>
    <_>
      <rect>
        8 1 1 4</rect></_>
    <_>
      <rect>
        8 1 4 6</rect></_>
    <_>
      <rect>
        8 2 1 2</rect></_>
    <_>
      <rect>
        8 5 4 5</rect></_>
    <_>
      <rect>
        8 7 2 2</rect></_>
    <_>
      <rect>
        8 8 4 4</rect></_>
    <_>
      <rect>
        8 10 2 2</rect></_>
    <_>
      <rect>
        8 11 4 3</rect></_>
    <_>
      <rect>
        8 12 2 1</rect></_>
    <_>
      <rect>
        8 13 1 1</rect></_>
    <_>
      <rect>
        8 13 4 2</rect></_>
    <_>
      <rect>
        8 14 4 2</rect></_>
    <_>
      <rect>
        9 0 2 4</rect></_>
    <_>
      <rect>
        9 2 3 6</rect></_>
    <_>
      <rect>
        9 6 1 3</rect></_>
    <_>
      <rect>
        9 6 3 2</rect></_>
    <_>
      <rect>
        10 0 1 4</rect></_>
    <_>
      <rect>
        10 3 1 2</rect></_>
    <_>
      <rect>
        10 9 1 2</rect></_>
    <_>
      <rect>
        10 11 2 3</rect></_>
    <_>
      <rect>
        10 12 3 2</rect></_>
    <_>
      <rect>
        10 16 1 1</rect></_>
    <_>
      <rect>
        11 0 1 1</rect></_>
    <_>
      <rect>
        11 0 1 2</rect></_>
    <_>
      <rect>
        11 0 1 6</rect></_>
    <_>
      <rect>
        11 11 3 3</rect></_>
    <_>
      <rect>
        11 17 3 1</rect></_>
    <_>
      <rect>
        12 5 2 5</rect></_>
    <_>
      <rect>
        12 17 1 1</rect></_>
    <_>
      <rect>
        13 5 2 5</rect></_>
    <_>
      <rect>
        13 8 2 4</rect></_>
    <_>
      <rect>
        13 11 2 3</rect></_>
    <_>
      <rect>
        14 4 2 5</rect></_>
    <_>
      <rect>
        14 5 2 5</rect></_>
    <_>
      <rect>
        14 11 2 3</rect></_>
    <_>
      <rect>
        14 14 2 2</rect></_>
    <_>
      <rect>
        14 17 1 1</rect></_>
    <_>
      <rect>
        15 13 1 1</rect></_>
    <_>
      <rect>
        16 0 1 1</rect></_>
    <_>
      <rect>
        16 1 1 3</rect></_>
    <_>
      <rect>
        16 8 1 4</rect></_>
    <_>
      <rect>
        16 10 1 2</rect></_>
    <_>
      <rect>
        17 0 1 1</rect></_>
    <_>
      <rect>
        17 0 1 2</rect></_>
    <_>
      <rect>
        17 1 1 1</rect></_>
    <_>
      <rect>
        17 1 1 4</rect></_>
    <_>
      <rect>
        17 2 1 6</rect></_>
    <_>
      <rect>
        17 4 1 4</rect></_>
    <_>
      <rect>
        17 4 1 5</rect></_>
    <_>
      <rect>
        17 5 1 4</rect></_>
    <_>
      <rect>
        17 5 1 5</rect></_>
    <_>
      <rect>
        17 7 1 2</rect></_>
    <_>
      <rect>
        17 8 1 4</rect></_>
    <_>
      <rect>
        17 9 1 1</rect></_>
    <_>
      <rect>
        17 10 1 1</rect></_>
    <_>
      <rect>
        17 10 1 2</rect></_>
    <_>
      <rect>
        17 11 1 1</rect></_>
    <_>
      <rect>
        17 11 1 3</rect></_>
    <_>
      <rect>
        17 12 1 1</rect></_>
    <_>
      <rect>
        17 13 1 1</rect></_>
    <_>
      <rect>
        17 16 1 1</rect></_>
    <_>
      <rect>
        17 17 1 1</rect></_></features></cascade>
</opencv_storage>
