<?xml version="1.0"?>
<opencv_storage>
<cascade>
  <stageType>BOOST</stageType>
  <featureType>LBP</featureType>
  <height>20</height>
  <width>20</width>
  <stageParams>
    <boostType>GAB</boostType>
    <minHitRate>9.9900001287460327e-01</minHitRate>
    <maxFalseAlarm>5.0000000000000000e-01</maxFalseAlarm>
    <weightTrimRate>9.4999999999999996e-01</weightTrimRate>
    <maxDepth>1</maxDepth>
    <maxWeakCount>100</maxWeakCount></stageParams>
  <featureParams>
    <maxCatCount>256</maxCatCount>
    <featSize>1</featSize></featureParams>
  <stageNum>19</stageNum>
  <stages>
    <!-- stage 0 -->
    <_>
      <maxWeakCount>5</maxWeakCount>
      <stageThreshold>-2.5962610244750977e+00</stageThreshold>
      <weakClassifiers>
        <_>
          <internalNodes>
            0 -1 11 -3211266 -1 -842204180 -572719105 -1 -1 -2097153
            -2097153</internalNodes>
          <leafValues>
            -8.9636462926864624e-01 6.4108031988143921e-01</leafValues></_>
        <_>
          <internalNodes>
            0 -1 52 -1140872534 -1 579805871 -134219777 -2097153 -65
            -24577 -1048577</internalNodes>
          <leafValues>
            -7.7435564994812012e-01 5.3920066356658936e-01</leafValues></_>
        <_>
          <internalNodes>
            0 -1 3 -389099794 -1968509269 -587273233 -939529361 -1
            -68158465 -100663553 -269484289</internalNodes>
          <leafValues>
            -6.8457561731338501e-01 4.7735893726348877e-01</leafValues></_>
        <_>
          <internalNodes>
            0 -1 79 -36 -4 -3868708 -2269444 -524452 -1048580 -2310180
            -62586884</internalNodes>
          <leafValues>
            -8.4814190864562988e-01 3.4187537431716919e-01</leafValues></_>
        <_>
          <internalNodes>
            0 -1 188 1034928115 -1414529110 -33557518 -2063601157
            -34080777 100663219 1979700468 -838861571</internalNodes>
          <leafValues>
            -5.8284062147140503e-01 5.6357431411743164e-01</leafValues></_></weakClassifiers></_>
    <!-- stage 1 -->
    <_>
      <maxWeakCount>5</maxWeakCount>
      <stageThreshold>-2.3386609554290771e+00</stageThreshold>
      <weakClassifiers>
        <_>
          <internalNodes>
            0 -1 11 -3342338 -2097153 -817037348 -539099137 -134222849
            -24641 -2098177 -538968065</internalNodes>
          <leafValues>
            -8.8869959115982056e-01 5.4734718799591064e-01</leafValues></_>
        <_>
          <internalNodes>
            0 -1 73 -2129408 -513 1394418183 -513 -2098177 -67108865
            -136314945 -5</internalNodes>
          <leafValues>
            -8.0588120222091675e-01 4.5443037152290344e-01</leafValues></_>
        <_>
          <internalNodes>
            0 -1 13 -825299218 -1903244054 -924061731 24629011 -1025
            -1141900289 -1091571969 -536871169</internalNodes>
          <leafValues>
            -7.3674380779266357e-01 3.9655956625938416e-01</leafValues></_>
        <_>
          <internalNodes>
            0 -1 44 -33589377 -8499331 -1004872162 2133487478 -9035010
            1970696983 -9414018 -9208201</internalNodes>
          <leafValues>
            -5.5314850807189941e-01 4.9590051174163818e-01</leafValues></_>
        <_>
          <internalNodes>
            0 -1 146 -136314924 -134222849 -74520764 -672418308 -9045040
            -1576385 -78581940 1432223614</internalNodes>
          <leafValues>
            -7.9023468494415283e-01 3.4951329231262207e-01</leafValues></_></weakClassifiers></_>
    <!-- stage 2 -->
    <_>
      <maxWeakCount>8</maxWeakCount>
      <stageThreshold>-2.2511944770812988e+00</stageThreshold>
      <weakClassifiers>
        <_>
          <internalNodes>
            0 -1 190 725595647 196054011 -574628363 -1912605217
            -268435457 -1930757445 -838870531 -1912603137</internalNodes>
          <leafValues>
            -6.8918919563293457e-01 5.0079870223999023e-01</leafValues></_>
        <_>
          <internalNodes>
            0 -1 10 -397415698 -2097153 16810127 1465884159 -134217729
            -84935186 -1 -4097</internalNodes>
          <leafValues>
            -7.5485998392105103e-01 4.4031229615211487e-01</leafValues></_>
        <_>
          <internalNodes>
            0 -1 20 -33619970 -53675010 -1245186 -573767684 -536870913
            -590546242 -1 -574291978</internalNodes>
          <leafValues>
            -8.3340096473693848e-01 3.1500154733657837e-01</leafValues></_>
        <_>
          <internalNodes>
            0 -1 176 -8913152 -1051649 -1046409403 -3675137 1560339968
            -25181249 50852651 1409285082</internalNodes>
          <leafValues>
            -7.5347656011581421e-01 3.3081981539726257e-01</leafValues></_>
        <_>
          <internalNodes>
            0 -1 186 -570687503 -2061108830 -34213584 -2059541008
            -584057359 71808432 2012214768 99610623</internalNodes>
          <leafValues>
            -6.1958283185958862e-01 3.9928126335144043e-01</leafValues></_>
        <_>
          <internalNodes>
            0 -1 37 -604045313 -164479042 -1908211894 -16580870
            1880646833 1493204567 1597047296 2071166834</internalNodes>
          <leafValues>
            -6.1520332098007202e-01 3.7735018134117126e-01</leafValues></_>
        <_>
          <internalNodes>
            0 -1 232 -302514269 -2127894870 -1277322720 -945691508
            1871181815 12174484 -951585312 -993005321</internalNodes>
          <leafValues>
            -4.4615405797958374e-01 5.6844115257263184e-01</leafValues></_>
        <_>
          <internalNodes>
            0 -1 4 -925962514 1078619790 -171144233 84887390 -69207089
            -773849649 1002307487 1432346094</internalNodes>
          <leafValues>
            -7.5123775005340576e-01 3.1971654295921326e-01</leafValues></_></weakClassifiers></_>
    <!-- stage 3 -->
    <_>
      <maxWeakCount>9</maxWeakCount>
      <stageThreshold>-2.2590153217315674e+00</stageThreshold>
      <weakClassifiers>
        <_>
          <internalNodes>
            0 -1 48 -539012265 -33595393 2052913919 -819713 -206409357
            -75805833 -149454977 -8945793</internalNodes>
          <leafValues>
            -6.7860281467437744e-01 4.7629439830780029e-01</leafValues></_>
        <_>
          <internalNodes>
            0 -1 72 -536929526 -2146305 1496840501 -41943041 -201326593
            -65537 -67108865 -65</internalNodes>
          <leafValues>
            -5.9433788061141968e-01 4.3520870804786682e-01</leafValues></_>
        <_>
          <internalNodes>
            0 -1 74 -1179684 -6145 -3342380 -1033 -92275756 -1287945219
            -10616833 -614466593</internalNodes>
          <leafValues>
            -7.3524612188339233e-01 3.2692372798919678e-01</leafValues></_>
        <_>
          <internalNodes>
            0 -1 65 -555843586 -135888930 1827548926 -9814022 -544845858
            409097009 -21569794 2138718207</internalNodes>
          <leafValues>
            -5.3521525859832764e-01 4.0616789460182190e-01</leafValues></_>
        <_>
          <internalNodes>
            0 -1 5 -286331154 -1281102070 -684213441 401438251 -1
            -1572961 -11534385 -1052929</internalNodes>
          <leafValues>
            -5.0735157728195190e-01 3.8796883821487427e-01</leafValues></_>
        <_>
          <internalNodes>
            0 -1 118 1400771832 1467753983 1972243451 2080259423
            -845010724 -81049502 -44909606 -80577670</internalNodes>
          <leafValues>
            -4.6405220031738281e-01 4.2771691083908081e-01</leafValues></_>
        <_>
          <internalNodes>
            0 -1 39 -1048578 -35735776 -138100820 -573786164 -7341124
            1313082304 -54202642 1599782094</internalNodes>
          <leafValues>
            -5.8139628171920776e-01 3.3809399604797363e-01</leafValues></_>
        <_>
          <internalNodes>
            0 -1 208 -134742027 816971000 887619064 217700336
            -1393034760 3190836 -780806916 213909502</internalNodes>
          <leafValues>
            -5.5428785085678101e-01 3.2259732484817505e-01</leafValues></_>
        <_>
          <internalNodes>
            0 -1 38 -151060786 -543237170 -501471506 -69271700
            -843625491 1549912831 -621322114 1951129343</internalNodes>
          <leafValues>
            -5.3544074296951294e-01 3.4125709533691406e-01</leafValues></_></weakClassifiers></_>
    <!-- stage 4 -->
    <_>
      <maxWeakCount>10</maxWeakCount>
      <stageThreshold>-1.8853298425674438e+00</stageThreshold>
      <weakClassifiers>
        <_>
          <internalNodes>
            0 -1 157 425146353 769594303 -1778386443 -1912603137
            -4194823 -1984184837 -54788867 -1912602881</internalNodes>
          <leafValues>
            -6.6434288024902344e-01 4.0845069289207458e-01</leafValues></_>
        <_>
          <internalNodes>
            0 -1 180 -2 -337 -1112805544 -12591161 -655428 -67108865
            -15335464 -42467329</internalNodes>
          <leafValues>
            -5.3353756666183472e-01 4.3002173304557800e-01</leafValues></_>
        <_>
          <internalNodes>
            0 -1 19 -2 -33752066 -577857794 -588448516 -33555457 -17729
            -808477697 -579543041</internalNodes>
          <leafValues>
            -5.5923110246658325e-01 3.6401417851448059e-01</leafValues></_>
        <_>
          <internalNodes>
            0 -1 135 1965429145 2139774974 1534474617 2147105276
            -1289216098 -77847574 -1153762312 -1146475526</internalNodes>
          <leafValues>
            -4.4377502799034119e-01 4.0139618515968323e-01</leafValues></_>
        <_>
          <internalNodes>
            0 -1 42 -562661633 -17011714 1953691134 -9371654 -277848322
            1912736631 -143638658 -9207977</internalNodes>
          <leafValues>
            -4.3133008480072021e-01 4.2278560996055603e-01</leafValues></_>
        <_>
          <internalNodes>
            0 -1 76 -11280504 -2081 520159489 -1 -46137425 -78907157
            324103947 1464721359</internalNodes>
          <leafValues>
            -6.7151737213134766e-01 2.2857260704040527e-01</leafValues></_>
        <_>
          <internalNodes>
            0 -1 212 1606287345 53852656 1475853808 226302200
            -1443119169 184270013 1574829557 -1931485765</internalNodes>
          <leafValues>
            -4.0298247337341309e-01 4.3926855921745300e-01</leafValues></_>
        <_>
          <internalNodes>
            0 -1 23 -305140498 -2068910098 1038043972 -604509808
            -1345328129 -1364344321 1726970743 -939527321</internalNodes>
          <leafValues>
            -4.5076328516006470e-01 4.0358367562294006e-01</leafValues></_>
        <_>
          <internalNodes>
            0 -1 116 2146926052 871019774 180799996 2144154044
            -1085800628 807190656 -1191249154 454033150</internalNodes>
          <leafValues>
            -5.6788575649261475e-01 3.2466840744018555e-01</leafValues></_>
        <_>
          <internalNodes>
            0 -1 202 -140116048 -145 1070283599 -1049609 -104398863
            -68448593 -788443366 1160082295</internalNodes>
          <leafValues>
            -6.1073219776153564e-01 2.6005938649177551e-01</leafValues></_></weakClassifiers></_>
    <!-- stage 5 -->
    <_>
      <maxWeakCount>11</maxWeakCount>
      <stageThreshold>-2.0114727020263672e+00</stageThreshold>
      <weakClassifiers>
        <_>
          <internalNodes>
            0 -1 8 -1427198226 1946157055 -1073758209 -201335841 -1 -1
            -1 -1</internalNodes>
          <leafValues>
            -6.9785028696060181e-01 2.7290168404579163e-01</leafValues></_>
        <_>
          <internalNodes>
            0 -1 66 -16812289 -50432641 -229180674 -227344386 -27830417
            2004317031 -80380037 -143130761</internalNodes>
          <leafValues>
            -5.6199371814727783e-01 3.6666417121887207e-01</leafValues></_>
        <_>
          <internalNodes>
            0 -1 7 -17891586 -858980610 -152136994 -858989409 -67110017
            -3713 -808482933 -540016641</internalNodes>
          <leafValues>
            -7.2767794132232666e-01 2.6092955470085144e-01</leafValues></_>
        <_>
          <internalNodes>
            0 -1 178 -145230080 -68158497 -268472509 -68158721
            1884767232 -67642369 554139163 2013261723</internalNodes>
          <leafValues>
            -7.2182840108871460e-01 2.6552405953407288e-01</leafValues></_>
        <_>
          <internalNodes>
            0 -1 187 1040187377 -1784677391 -1377829640 75363568
            -102778499 83061428 -536879876 218103806</internalNodes>
          <leafValues>
            -6.1480987071990967e-01 3.0017697811126709e-01</leafValues></_>
        <_>
          <internalNodes>
            0 -1 47 -577161 -749793033 -112066817 -10753553 -247242703
            -93031886 -68716257 -13108417</internalNodes>
          <leafValues>
            -4.1905879974365234e-01 4.3150049448013306e-01</leafValues></_>
        <_>
          <internalNodes>
            0 -1 34 -16847106 -1362166802 -84611346 -17891602 -874559274
            1179934583 1953778398 1953857327</internalNodes>
          <leafValues>
            -6.4182174205780029e-01 2.6476716995239258e-01</leafValues></_>
        <_>
          <internalNodes>
            0 -1 132 1609006940 937213852 1070527716 1038344958
            2102099736 276074728 726891260 1004271868</internalNodes>
          <leafValues>
            -5.9102571010589600e-01 2.8507113456726074e-01</leafValues></_>
        <_>
          <internalNodes>
            0 -1 222 -549454941 -1515457272 -754004656 -305267480
            -193072143 685817888 1204659696 -989865990</internalNodes>
          <leafValues>
            -4.1640180349349976e-01 4.0440234541893005e-01</leafValues></_>
        <_>
          <internalNodes>
            0 -1 140 -1226833940 -1649872048 -857961280 1005689576
            1578983340 404504184 971917262 905953151</internalNodes>
          <leafValues>
            -4.9855163693428040e-01 3.4986716508865356e-01</leafValues></_>
        <_>
          <internalNodes>
            0 -1 149 -2097154 -746370163 1005758444 -608440340 -655404
            -537530428 -134873252 71695335</internalNodes>
          <leafValues>
            -6.0226249694824219e-01 2.5894957780838013e-01</leafValues></_></weakClassifiers></_>
    <!-- stage 6 -->
    <_>
      <maxWeakCount>13</maxWeakCount>
      <stageThreshold>-1.9561928510665894e+00</stageThreshold>
      <weakClassifiers>
        <_>
          <internalNodes>
            0 -1 190 -1992887297 -1879069701 -570425347 -1912602625
            -335561729 -1996771585 -1409287169 -1912602625</internalNodes>
          <leafValues>
            -6.0140120983123779e-01 3.6089473962783813e-01</leafValues></_>
        <_>
          <internalNodes>
            0 -1 121 -4096 -1052673 2009822651 -1048577 -681605409
            -88145921 1925919147 -68157765</internalNodes>
          <leafValues>
            -5.9765136241912842e-01 2.9537388682365417e-01</leafValues></_>
        <_>
          <internalNodes>
            0 -1 101 -545325058 -571677714 -11602320 -537264404
            -572722948 286309817 244866266 1476386047</internalNodes>
          <leafValues>
            -4.6283122897148132e-01 3.5502031445503235e-01</leafValues></_>
        <_>
          <internalNodes>
            0 -1 6 -353448210 -2117107542 148352703 31925799 -1317 -3469
            -1617717637 1607199343</internalNodes>
          <leafValues>
            -6.7784196138381958e-01 2.7035641670227051e-01</leafValues></_>
        <_>
          <internalNodes>
            0 -1 143 1029011312 532653496 -572532496 -1653615146
            -235671052 -1122266134 -1394748168 -1912607505</internalNodes>
          <leafValues>
            -4.4932177662849426e-01 3.5613861680030823e-01</leafValues></_>
        <_>
          <internalNodes>
            0 -1 64 -690293505 2113811391 -248463058 824213402
            -1033087756 2064652596 -93300572 -9404576</internalNodes>
          <leafValues>
            -5.2775102853775024e-01 2.8686398267745972e-01</leafValues></_>
        <_>
          <internalNodes>
            0 -1 211 -536870991 -1846805328 1405449712 -1912759568
            -1177550915 11462819 -976495108 -1912603201</internalNodes>
          <leafValues>
            -4.4483196735382080e-01 3.2909348607063293e-01</leafValues></_>
        <_>
          <internalNodes>
            0 -1 21 -221840770 -53547282 -1369144250 -991507346
            2110774207 -539051077 1876935103 1198480511</internalNodes>
          <leafValues>
            -6.0598552227020264e-01 2.8337925672531128e-01</leafValues></_>
        <_>
          <internalNodes>
            0 -1 92 -546107373 -220264110 1229213817 2064791546
            -500543472 -1192615888 -78104030 -9275533</internalNodes>
          <leafValues>
            -4.5970392227172852e-01 3.1172052025794983e-01</leafValues></_>
        <_>
          <internalNodes>
            0 -1 108 1372385254 -581315178 889226282 -707824137
            -175070545 1259115692 -1337214753 370137815</internalNodes>
          <leafValues>
            -5.3986358642578125e-01 2.8398808836936951e-01</leafValues></_>
        <_>
          <internalNodes>
            0 -1 56 -508691296 -930814742 -1607229440 -716353312
            -363857990 -2113298198 2039605219 -677444399</internalNodes>
          <leafValues>
            -4.1106912493705750e-01 3.8571098446846008e-01</leafValues></_>
        <_>
          <internalNodes>
            0 -1 128 2128609260 2038758824 656936264 829403584 -77791428
            421379164 987683566 565689215</internalNodes>
          <leafValues>
            -5.6979858875274658e-01 2.9831084609031677e-01</leafValues></_>
        <_>
          <internalNodes>
            0 -1 229 -76152868 -202508357 -1744789224 -34014243
            -819154008 -74229588 -641930356 143188220</internalNodes>
          <leafValues>
            -6.5219193696975708e-01 2.2398276627063751e-01</leafValues></_></weakClassifiers></_>
    <!-- stage 7 -->
    <_>
      <maxWeakCount>12</maxWeakCount>
      <stageThreshold>-1.7427160739898682e+00</stageThreshold>
      <weakClassifiers>
        <_>
          <internalNodes>
            0 -1 173 1002389503 805288959 -33693711 -1912610817
            -1150287873 -1912875521 -570425347 -1912603137</internalNodes>
          <leafValues>
            -6.2628006935119629e-01 3.1180441379547119e-01</leafValues></_>
        <_>
          <internalNodes>
            0 -1 17 -292556817 -1431375894 -134794405 -201328669 -1 -1
            -262149 -1</internalNodes>
          <leafValues>
            -4.2954665422439575e-01 4.5141643285751343e-01</leafValues></_>
        <_>
          <internalNodes>
            0 -1 26 -16843777 -4391180 -1020476888 -136265996 -570490890
            1932588860 -17761248 1934653184</internalNodes>
          <leafValues>
            -6.3173806667327881e-01 2.6180234551429749e-01</leafValues></_>
        <_>
          <internalNodes>
            0 -1 28 1856958190 715844270 -822194482 -454107552
            -536883585 265289599 -289468449 1626863343</internalNodes>
          <leafValues>
            -7.3111444711685181e-01 2.4957039952278137e-01</leafValues></_>
        <_>
          <internalNodes>
            0 -1 177 -786480 -1412456453 -342369961 -269535617 -83558576
            -386815797 -570302637 2131755007</internalNodes>
          <leafValues>
            -6.5884691476821899e-01 2.1939207613468170e-01</leafValues></_>
        <_>
          <internalNodes>
            0 -1 209 -13 564527098 -2087865760 -1933788424 -545409027
            70581984 -536870924 -1930627074</internalNodes>
          <leafValues>
            -5.0461119413375854e-01 3.0037754774093628e-01</leafValues></_>
        <_>
          <internalNodes>
            0 -1 200 457159677 367711408 1073737725 -573600552
            -1879837699 682991351 536270577 -1610625540</internalNodes>
          <leafValues>
            -3.8625425100326538e-01 4.0231639146804810e-01</leafValues></_>
        <_>
          <internalNodes>
            0 -1 41 -87064849 -1157694465 -694374198 -16842930 -3969433
            1199338300 -235545279 -143261897</internalNodes>
          <leafValues>
            -4.9287113547325134e-01 2.8654292225837708e-01</leafValues></_>
        <_>
          <internalNodes>
            0 -1 206 -1088422112 2132328379 -288490848 799405986
            2146098996 1907289983 -34736192 1086844391</internalNodes>
          <leafValues>
            -5.4942357540130615e-01 2.6001673936843872e-01</leafValues></_>
        <_>
          <internalNodes>
            0 -1 90 1876721534 -305513514 -36805186 -269591046
            2110839640 1494251678 -143467526 2007109585</internalNodes>
          <leafValues>
            -5.6453847885131836e-01 2.3928001523017883e-01</leafValues></_>
        <_>
          <internalNodes>
            0 -1 31 -824250642 -1899039794 -855888170 -404291858
            -1677963745 256367535 1555911582 1979678559</internalNodes>
          <leafValues>
            -5.2000564336776733e-01 2.4524135887622833e-01</leafValues></_>
        <_>
          <internalNodes>
            0 -1 127 -715259969 722004904 -911154968 702801504
            1539082460 467434922 1593397486 1727526903</internalNodes>
          <leafValues>
            -4.1498824954032898e-01 3.2192382216453552e-01</leafValues></_></weakClassifiers></_>
    <!-- stage 8 -->
    <_>
      <maxWeakCount>14</maxWeakCount>
      <stageThreshold>-1.8349785804748535e+00</stageThreshold>
      <weakClassifiers>
        <_>
          <internalNodes>
            0 -1 69 -606383267 -2295553 -730570753 -598145 -11121101
            -8963713 -77103489 -8945793</internalNodes>
          <leafValues>
            -6.0168457031250000e-01 2.5341373682022095e-01</leafValues></_>
        <_>
          <internalNodes>
            0 -1 120 -2132224 -37880321 -46140161 -4202497 -4202497
            -67371073 -421004657 -1066049</internalNodes>
          <leafValues>
            -4.9770191311836243e-01 3.1656339764595032e-01</leafValues></_>
        <_>
          <internalNodes>
            0 -1 33 -16842753 -587269121 -757811458 -475394 -555942146
            1484018036 473183744 2004188534</internalNodes>
          <leafValues>
            -5.5168914794921875e-01 2.6897248625755310e-01</leafValues></_>
        <_>
          <internalNodes>
            0 -1 145 -11012352 -77598725 -289488961 -33555809 1386612232
            2010083319 369260255 2139094895</internalNodes>
          <leafValues>
            -6.5574669837951660e-01 2.2467446327209473e-01</leafValues></_>
        <_>
          <internalNodes>
            0 -1 170 -1036 486204600 1532753904 70578356 -69870732
            472908984 -10486020 2079322110</internalNodes>
          <leafValues>
            -4.5645639300346375e-01 2.9968455433845520e-01</leafValues></_>
        <_>
          <internalNodes>
            0 -1 214 729262257 146442909 -1051076752 -1932950895
            -1904558081 -2144810245 -444338185 -1929381121</internalNodes>
          <leafValues>
            -4.7403314709663391e-01 2.8000077605247498e-01</leafValues></_>
        <_>
          <internalNodes>
            0 -1 98 -95551490 1370026976 -1008829492 -35258528
            1565559860 1225302847 1857996494 1888442095</internalNodes>
          <leafValues>
            -4.5956373214721680e-01 2.8449419140815735e-01</leafValues></_>
        <_>
          <internalNodes>
            0 -1 16 -806028290 -1263744516 -788036532 -270737108
            -403838741 -1397984350 -339217411 1953527152</internalNodes>
          <leafValues>
            -6.1658316850662231e-01 2.0558506250381470e-01</leafValues></_>
        <_>
          <internalNodes>
            0 -1 88 -262219778 -414386198 -548004536 1342046060
            -464205065 152311154 443697266 1593794175</internalNodes>
          <leafValues>
            -4.7658815979957581e-01 2.5157448649406433e-01</leafValues></_>
        <_>
          <internalNodes>
            0 -1 18 -789784850 -1975073042 172655835 94309127 -38798913
            1879030779 -271846501 1407180795</internalNodes>
          <leafValues>
            -6.0919219255447388e-01 2.3103861510753632e-01</leafValues></_>
        <_>
          <internalNodes>
            0 -1 205 -1216626944 1060763135 -62726368 -1148786714
            -612764672 2136074998 -1073879136 1691740151</internalNodes>
          <leafValues>
            -5.8246445655822754e-01 2.1196645498275757e-01</leafValues></_>
        <_>
          <internalNodes>
            0 -1 118 1578438770 -117761 1393720315 937034455 -64597744
            -540325613 859060506 -8750086</internalNodes>
          <leafValues>
            -4.6660038828849792e-01 2.5948882102966309e-01</leafValues></_>
        <_>
          <internalNodes>
            0 -1 80 -473716565 -536288542 1476335474 -579599950
            -1267730438 -2100826116 1672368499 -716212603</internalNodes>
          <leafValues>
            -3.3342593908309937e-01 4.0668976306915283e-01</leafValues></_>
        <_>
          <internalNodes>
            0 -1 114 -76532242 524090026 -695686460 -202301664
            -1080165378 1594629352 -1300493590 871625638</internalNodes>
          <leafValues>
            -4.9927088618278503e-01 2.6840928196907043e-01</leafValues></_></weakClassifiers></_>
    <!-- stage 9 -->
    <_>
      <maxWeakCount>15</maxWeakCount>
      <stageThreshold>-2.2204160690307617e+00</stageThreshold>
      <weakClassifiers>
        <_>
          <internalNodes>
            0 -1 46 -539013005 -12622821 -766181635 -15477121 -344247951
            -97037711 -197836941 -8914057</internalNodes>
          <leafValues>
            -6.5100240707397461e-01 1.5654101967811584e-01</leafValues></_>
        <_>
          <internalNodes>
            0 -1 160 -612368388 -544088632 -2014901984 -1213726848
            -570630772 521652942 -119415346 1638399975</internalNodes>
          <leafValues>
            -5.0965029001235962e-01 2.5660133361816406e-01</leafValues></_>
        <_>
          <internalNodes>
            0 -1 51 -1431662866 2071837183 1123532375 1963382347
            -135020545 -80594689 -1207962626 2130701695</internalNodes>
          <leafValues>
            -5.7292449474334717e-01 2.2779582440853119e-01</leafValues></_>
        <_>
          <internalNodes>
            0 -1 169 -2049 -1643074056 -1124155660 201381876 1605419004
            604045272 1853636588 2076180479</internalNodes>
          <leafValues>
            -3.3786445856094360e-01 4.0889316797256470e-01</leafValues></_>
        <_>
          <internalNodes>
            0 -1 172 857846261 934932920 530250233 -1611855664
            -1153896459 -1087139400 188694012 -1879057220</internalNodes>
          <leafValues>
            -3.7990778684616089e-01 3.6634230613708496e-01</leafValues></_>
        <_>
          <internalNodes>
            0 -1 184 2135949104 -1077938776 -548413664 -711284814
            -8692820 156693267 -8390712 1374156775</internalNodes>
          <leafValues>
            -4.6423348784446716e-01 2.9005107283592224e-01</leafValues></_>
        <_>
          <internalNodes>
            0 -1 103 -654697761 -1159318682 -254084900 -621259528
            -126468032 -97492670 -178255020 -14518758</internalNodes>
          <leafValues>
            -4.9985206127166748e-01 2.3062051832675934e-01</leafValues></_>
        <_>
          <internalNodes>
            0 -1 25 -433593681 -524113022 1862175812 -3150560 498055099
            -257950822 1967123887 -456661598</internalNodes>
          <leafValues>
            -2.8277322649955750e-01 4.5469948649406433e-01</leafValues></_>
        <_>
          <internalNodes>
            0 -1 216 -375152431 150710525 1207418869 122652490
            -1552561217 15838844 1803419131 -1912615937</internalNodes>
          <leafValues>
            -3.3877578377723694e-01 3.7321296334266663e-01</leafValues></_>
        <_>
          <internalNodes>
            0 -1 45 -553748770 -598311428 -771072260 -851986 -1981656840
            1191471607 1059064042 2139062143</internalNodes>
          <leafValues>
            -5.0693744421005249e-01 2.4427513778209686e-01</leafValues></_>
        <_>
          <internalNodes>
            0 -1 53 -137494546 -73551693 1464659852 -572662785
            -1293318353 -1952939991 991902559 1595932575</internalNodes>
          <leafValues>
            -5.8935010433197021e-01 2.3190312087535858e-01</leafValues></_>
        <_>
          <internalNodes>
            0 -1 126 1997922302 1562694562 1352057620 -273287392
            -921839108 827374217 246694236 1659835495</internalNodes>
          <leafValues>
            -4.3463432788848877e-01 3.0389288067817688e-01</leafValues></_>
        <_>
          <internalNodes>
            0 -1 223 -616829007 -1390028632 1945956848 -706116396
            -1511720968 -2070618892 -135940688 -823142678</internalNodes>
          <leafValues>
            -3.2446688413619995e-01 3.9546647667884827e-01</leafValues></_>
        <_>
          <internalNodes>
            0 -1 225 -135207952 -202511361 -926825566 -139985990
            -1093361112 1619571648 2023848730 1569767072</internalNodes>
          <leafValues>
            -5.8756971359252930e-01 2.0863281190395355e-01</leafValues></_>
        <_>
          <internalNodes>
            0 -1 89 -167774274 -807606434 -48344116 2002206541
            -795936780 289420090 1169481051 1171627167</internalNodes>
          <leafValues>
            -4.3039846420288086e-01 2.8669020533561707e-01</leafValues></_></weakClassifiers></_>
    <!-- stage 10 -->
    <_>
      <maxWeakCount>14</maxWeakCount>
      <stageThreshold>-1.6880775690078735e+00</stageThreshold>
      <weakClassifiers>
        <_>
          <internalNodes>
            0 -1 48 -749003945 -10544545 1498838271 -42484353 -60415117
            -10528649 -413697409 -8421573</internalNodes>
          <leafValues>
            -6.2780654430389404e-01 2.2504957020282745e-01</leafValues></_>
        <_>
          <internalNodes>
            0 -1 142 1429215061 2073579644 1029316605 1065226264
            295225564 -1176669448 1069170364 1006250168</internalNodes>
          <leafValues>
            -5.2396780252456665e-01 2.4648779630661011e-01</leafValues></_>
        <_>
          <internalNodes>
            0 -1 2 -54211330 -825965332 -446751457 -825933473 -23809
            -311643153 -33570897 1172622559</internalNodes>
          <leafValues>
            -6.5173488855361938e-01 1.9267000257968903e-01</leafValues></_>
        <_>
          <internalNodes>
            0 -1 96 1431273610 -270534241 290259343 1476380063
            -573440001 -604310273 910544799 1908132731</internalNodes>
          <leafValues>
            -5.8615553379058838e-01 2.1582368016242981e-01</leafValues></_>
        <_>
          <internalNodes>
            0 -1 215 33587932 411772132 233281757 532521040 179022008
            -1996517207 218726653 -1948279668</internalNodes>
          <leafValues>
            -4.5525008440017700e-01 2.7823615074157715e-01</leafValues></_>
        <_>
          <internalNodes>
            0 -1 61 -765532434 1865350094 -430281046 2141715342
            -929674038 1330708583 -1474295553 2004864607</internalNodes>
          <leafValues>
            -4.1899430751800537e-01 3.0964502692222595e-01</leafValues></_>
        <_>
          <internalNodes>
            0 -1 152 -149956673 118548332 324174044 -1925581404
            -197896996 1016601560 752091582 1006073727</internalNodes>
          <leafValues>
            -3.8767659664154053e-01 3.1344267725944519e-01</leafValues></_>
        <_>
          <internalNodes>
            0 -1 32 -136380421 1601729534 -1911541507 -699221094
            2068100156 994343220 -15711728 2134915888</internalNodes>
          <leafValues>
            -5.9435182809829712e-01 1.9157969951629639e-01</leafValues></_>
        <_>
          <internalNodes>
            0 -1 123 1945297910 -575609884 -1300720906 2109460904
            -666367748 457703876 -1142908785 328163167</internalNodes>
          <leafValues>
            -4.5463201403617859e-01 2.5517085194587708e-01</leafValues></_>
        <_>
          <internalNodes>
            0 -1 104 1439306996 -218232513 310934779 -75827876
            -402514928 -84127728 -1675470312 -9274790</internalNodes>
          <leafValues>
            -4.3294689059257507e-01 2.8290417790412903e-01</leafValues></_>
        <_>
          <internalNodes>
            0 -1 151 -780144212 -1761523808 -1618603848 2033559297
            -646702868 186110118 1660047054 300906182</internalNodes>
          <leafValues>
            -4.7154527902603149e-01 2.6930731534957886e-01</leafValues></_>
        <_>
          <internalNodes>
            0 -1 175 -8399614 -134226177 -290455553 -1088426005
            -67172178 -17925441 -1585722949 2138831470</internalNodes>
          <leafValues>
            -4.1333818435668945e-01 2.9584926366806030e-01</leafValues></_>
        <_>
          <internalNodes>
            0 -1 131 -170786356 2069656671 2078439295 1000101470
            -912646728 -1686222660 -1490878466 -5096678</internalNodes>
          <leafValues>
            -3.6921510100364685e-01 3.1369036436080933e-01</leafValues></_>
        <_>
          <internalNodes>
            0 -1 161 -76021767 2099893040 -223972348 -1383993168
            1402346204 471347744 2130522062 1441791735</internalNodes>
          <leafValues>
            -3.7377217411994934e-01 3.3007308840751648e-01</leafValues></_></weakClassifiers></_>
    <!-- stage 11 -->
    <_>
      <maxWeakCount>17</maxWeakCount>
      <stageThreshold>-1.8599662780761719e+00</stageThreshold>
      <weakClassifiers>
        <_>
          <internalNodes>
            0 -1 189 856142333 -1088700456 -1116350979 -1644193795
            -1438663171 -1979723265 230678015 -1879054081</internalNodes>
          <leafValues>
            -5.3528314828872681e-01 2.6203423738479614e-01</leafValues></_>
        <_>
          <internalNodes>
            0 -1 47 1380700435 -7135979 1797508599 -11283457 1851994163
            -77512143 2004057907 -13402317</internalNodes>
          <leafValues>
            -4.3717747926712036e-01 3.0218470096588135e-01</leafValues></_>
        <_>
          <internalNodes>
            0 -1 9 -1429280018 -2375757 -1214255201 292286525 -266753
            -72108591 -65877 -270602881</internalNodes>
          <leafValues>
            -5.5195927619934082e-01 2.3481509089469910e-01</leafValues></_>
        <_>
          <internalNodes>
            0 -1 201 -9306368 -67648513 -680133633 -4850689 439074304
            -4217905 553904079 286643814</internalNodes>
          <leafValues>
            -5.7456034421920776e-01 2.3042614758014679e-01</leafValues></_>
        <_>
          <internalNodes>
            0 -1 208 -706873359 1972723448 -1916051976 149463164
            -671548423 210017460 -538125060 145549306</internalNodes>
          <leafValues>
            -5.7224929332733154e-01 2.1241781115531921e-01</leafValues></_>
        <_>
          <internalNodes>
            0 -1 153 -958398468 -734464392 531769820 754483024
            -547833220 135834108 1012703230 2143289343</internalNodes>
          <leafValues>
            -4.0984421968460083e-01 2.8149884939193726e-01</leafValues></_>
        <_>
          <internalNodes>
            0 -1 148 -854429228 471900928 -951792296 730431408
            2119965160 2132366299 -386921250 552040319</internalNodes>
          <leafValues>
            -5.0380378961563110e-01 2.4170728027820587e-01</leafValues></_>
        <_>
          <internalNodes>
            0 -1 63 -625805314 2119621374 306345950 1568342010
            1009795316 1008749396 1999657528 2139051612</internalNodes>
          <leafValues>
            -5.4352635145187378e-01 2.0309771597385406e-01</leafValues></_>
        <_>
          <internalNodes>
            0 -1 87 -915638274 -578240530 518538268 -1980024 -1802711860
            -586889340 -323303190 1170674702</internalNodes>
          <leafValues>
            -5.6856006383895874e-01 1.8642465770244598e-01</leafValues></_>
        <_>
          <internalNodes>
            0 -1 158 -564919279 -604230657 1852284415 -541754841
            -26829382 -69322957 -1426800993 -1703483717</internalNodes>
          <leafValues>
            -2.9537710547447205e-01 3.9775145053863525e-01</leafValues></_>
        <_>
          <internalNodes>
            0 -1 129 2011591110 998830576 421924588 497368020
            -1622082788 289734972 -1738941090 939520478</internalNodes>
          <leafValues>
            -5.3833091259002686e-01 2.3570248484611511e-01</leafValues></_>
        <_>
          <internalNodes>
            0 -1 133 -254418946 -1817132640 -613410884 -3028192
            476109052 2107167740 -156218674 836203886</internalNodes>
          <leafValues>
            -4.9759230017662048e-01 2.0643159747123718e-01</leafValues></_>
        <_>
          <internalNodes>
            0 -1 15 -623065346 -84401956 2119549084 -235550640 -37884945
            -368274552 -132355 1416911220</internalNodes>
          <leafValues>
            -5.6818681955337524e-01 2.2463084757328033e-01</leafValues></_>
        <_>
          <internalNodes>
            0 -1 213 -1560036367 -1473707440 998493657 27101296
            -1425293575 -1996820819 985861596 -874528516</internalNodes>
          <leafValues>
            -3.8766837120056152e-01 3.0562314391136169e-01</leafValues></_>
        <_>
          <internalNodes>
            0 -1 147 -1628288 -44047437 1806456576 -1616304106
            2138273408 -268436801 908020235 1595932351</internalNodes>
          <leafValues>
            -6.1795163154602051e-01 2.1604351699352264e-01</leafValues></_>
        <_>
          <internalNodes>
            0 -1 185 -44114128 420237728 -850027024 -1942689024
            -11570316 68754224 -647397384 536864690</internalNodes>
          <leafValues>
            -5.2385467290878296e-01 2.1019276976585388e-01</leafValues></_>
        <_>
          <internalNodes>
            0 -1 78 -144863602 1600108992 67701163 391591307 455052207
            993698744 -1584403461 1364156235</internalNodes>
          <leafValues>
            -5.4303240776062012e-01 2.1045088768005371e-01</leafValues></_></weakClassifiers></_>
    <!-- stage 12 -->
    <_>
      <maxWeakCount>18</maxWeakCount>
      <stageThreshold>-1.6596456766128540e+00</stageThreshold>
      <weakClassifiers>
        <_>
          <internalNodes>
            0 -1 68 -753978509 -572576449 512818143 -14715969 -83742461
            -75546349 -215649713 -10486913</internalNodes>
          <leafValues>
            -5.7450097799301147e-01 1.0907144099473953e-01</leafValues></_>
        <_>
          <internalNodes>
            0 -1 3 -386994450 -1959811573 2105502719 1442840413 -1537
            -540288037 -72369477 -1049649</internalNodes>
          <leafValues>
            -5.2435767650604248e-01 2.2320035099983215e-01</leafValues></_>
        <_>
          <internalNodes>
            0 -1 83 -36374210 -1727993110 -1026683172 298124130
            1574781693 218247594 1795129311 1162303471</internalNodes>
          <leafValues>
            -4.7385302186012268e-01 2.3168967664241791e-01</leafValues></_>
        <_>
          <internalNodes>
            0 -1 112 -715260930 1435530236 289292136 263585380
            1095814460 256902066 304109498 2010095583</internalNodes>
          <leafValues>
            -3.7578326463699341e-01 3.0727609992027283e-01</leafValues></_>
        <_>
          <internalNodes>
            0 -1 198 -679888523 230404528 -1619798796 216050936
            -1652818499 144026870 358341884 216784382</internalNodes>
          <leafValues>
            -5.1982104778289795e-01 2.3255908489227295e-01</leafValues></_>
        <_>
          <internalNodes>
            0 -1 183 2104491792 1073729467 1300219232 -1090005024
            2069712720 252476207 2147309504 1173747703</internalNodes>
          <leafValues>
            -5.7948893308639526e-01 1.7217049002647400e-01</leafValues></_>
        <_>
          <internalNodes>
            0 -1 199 288603057 143188216 -1156326920 -1915909948
            325561045 -2104778508 28550653 -1912612356</internalNodes>
          <leafValues>
            -3.6765253543853760e-01 2.9210540652275085e-01</leafValues></_>
        <_>
          <internalNodes>
            0 -1 27 617533166 -391194450 1756006092 -33663250 2013219391
            546408695 1156514318 1886910051</internalNodes>
          <leafValues>
            -5.2697616815567017e-01 1.9049037992954254e-01</leafValues></_>
        <_>
          <internalNodes>
            0 -1 105 -656784649 -84000769 -486899970 2080047102
            -672119670 -33597586 -13451302 -8913061</internalNodes>
          <leafValues>
            -2.9960799217224121e-01 3.7442255020141602e-01</leafValues></_>
        <_>
          <internalNodes>
            0 -1 165 -740833033 1578673028 -1046666828 1026534368
            -646161588 -93244484 -329229714 227505771</internalNodes>
          <leafValues>
            -3.4989643096923828e-01 3.0718299746513367e-01</leafValues></_>
        <_>
          <internalNodes>
            0 -1 36 2129587951 -317915666 1625074426 -72698146
            1135693550 1439991520 -59487500 -9339010</internalNodes>
          <leafValues>
            -3.7845933437347412e-01 2.7449086308479309e-01</leafValues></_>
        <_>
          <internalNodes>
            0 -1 144 -681584891 -2097473 -1120927937 -13668786 -68213630
            -1141118081 -1855724722 -145752201</internalNodes>
          <leafValues>
            -3.4256765246391296e-01 3.0892521142959595e-01</leafValues></_>
        <_>
          <internalNodes>
            0 -1 134 -709887106 320869364 1383252104 564526688
            -660807044 336636668 -1057988870 1989637702</internalNodes>
          <leafValues>
            -4.8944047093391418e-01 2.1675235033035278e-01</leafValues></_>
        <_>
          <internalNodes>
            0 -1 22 -531648850 -1062297430 97792085 -714082304 -54542342
            -2109145078 277300523 -791695160</internalNodes>
          <leafValues>
            -3.0464303493499756e-01 3.4125766158103943e-01</leafValues></_>
        <_>
          <internalNodes>
            0 -1 141 1576861695 490499836 -2054015640 -1883300876
            2111057692 1002195450 1037051226 788473726</internalNodes>
          <leafValues>
            -4.4184792041778564e-01 2.3075217008590698e-01</leafValues></_>
        <_>
          <internalNodes>
            0 -1 233 -44040323 -800987968 -795574244 -578284360
            -2067074306 9192172 -1986077480 -1999844612</internalNodes>
          <leafValues>
            -3.8028067350387573e-01 2.9016640782356262e-01</leafValues></_>
        <_>
          <internalNodes>
            0 -1 100 1472004062 1065286310 -1014620636 187561760
            109186206 1384735615 2028865243 939523455</internalNodes>
          <leafValues>
            -3.8071027398109436e-01 2.7281439304351807e-01</leafValues></_>
        <_>
          <internalNodes>
            0 -1 44 1347843326 -2472085 1645399256 2145279088 -33537588
            1366777873 1011043188 2138537591</internalNodes>
          <leafValues>
            -5.0910437107086182e-01 2.1332289278507233e-01</leafValues></_></weakClassifiers></_>
    <!-- stage 13 -->
    <_>
      <maxWeakCount>21</maxWeakCount>
      <stageThreshold>-1.9432691335678101e+00</stageThreshold>
      <weakClassifiers>
        <_>
          <internalNodes>
            0 -1 190 -2018056205 -1912665605 -572788227 -1914700353
            -1611940865 -1934054977 -203425281 -1912602625</internalNodes>
          <leafValues>
            -5.6029629707336426e-01 1.2511999905109406e-01</leafValues></_>
        <_>
          <internalNodes>
            0 -1 227 -134218756 -67109958 -752813920 -740167050
            -77858648 -97728288 -213844308 -1061101316</internalNodes>
          <leafValues>
            -4.9712207913398743e-01 2.2947078943252563e-01</leafValues></_>
        <_>
          <internalNodes>
            0 -1 117 -740682629 2010149887 -1184877313 2138463231
            -85585892 -19259790 510802586 -80580774</internalNodes>
          <leafValues>
            -3.9807587862014771e-01 2.7738353610038757e-01</leafValues></_>
        <_>
          <internalNodes>
            0 -1 14 -15733010 -538970161 131727 1561195435 -270926849
            -64443904 -85750789 2146433803</internalNodes>
          <leafValues>
            -5.2236545085906982e-01 2.4269308149814606e-01</leafValues></_>
        <_>
          <internalNodes>
            0 -1 82 1281780390 938387108 1284244032 -35797824 1610423295
            800055995 2061959783 1154971511</internalNodes>
          <leafValues>
            -4.6357277035713196e-01 2.3106996715068817e-01</leafValues></_>
        <_>
          <internalNodes>
            0 -1 94 2107137502 -574041608 2051547004 1606039488
            2048936698 1578370259 1550458874 2144564219</internalNodes>
          <leafValues>
            -4.5050454139709473e-01 1.9935685396194458e-01</leafValues></_>
        <_>
          <internalNodes>
            0 -1 166 -551682209 789053232 -288563704 263060384
            2136296652 1041850352 -50578198 -520620185</internalNodes>
          <leafValues>
            -2.9074200987815857e-01 3.5178974270820618e-01</leafValues></_>
        <_>
          <internalNodes>
            0 -1 174 -142608635 -738205697 -177631233 -143181105
            -12876796 -1613587926 1427766875 1903416087</internalNodes>
          <leafValues>
            -3.9214053750038147e-01 2.4865381419658661e-01</leafValues></_>
        <_>
          <internalNodes>
            0 -1 156 1931458540 -602342736 839457080 950863344 454127988
            336864444 324962124 917483519</internalNodes>
          <leafValues>
            -5.0684630870819092e-01 1.8293991684913635e-01</leafValues></_>
        <_>
          <internalNodes>
            0 -1 136 -2144822639 -262886939 226563417 1607972213
            -1339574023 -1176753756 824294331 -1141298935</internalNodes>
          <leafValues>
            -3.1230953335762024e-01 3.1985035538673401e-01</leafValues></_>
        <_>
          <internalNodes>
            0 -1 59 -59513858 -1922500626 1178209886 -682765626
            1996996766 243586030 -834672498 1229447135</internalNodes>
          <leafValues>
            -3.9419949054718018e-01 2.5514829158782959e-01</leafValues></_>
        <_>
          <internalNodes>
            0 -1 35 -119547649 2012322107 -1064267558 -135073038
            -69466948 -1303297471 -246124460 -11175408</internalNodes>
          <leafValues>
            -3.5056960582733154e-01 3.0570182204246521e-01</leafValues></_>
        <_>
          <internalNodes>
            0 -1 210 -1757677572 193102736 -1919299872 1303199944
            561082996 212599240 1705473268 -1980762924</internalNodes>
          <leafValues>
            -4.0212276577949524e-01 2.6482397317886353e-01</leafValues></_>
        <_>
          <internalNodes>
            0 -1 62 -669064196 -585596548 1607653758 1676475612 72389870
            1314135219 1747189986 1728010875</internalNodes>
          <leafValues>
            -4.5533689856529236e-01 2.1564801037311554e-01</leafValues></_>
        <_>
          <internalNodes>
            0 -1 30 -28389649 -1254296214 -835180850 -67477970
            2143897855 1543364517 1322697353 1890581070</internalNodes>
          <leafValues>
            -3.7703996896743774e-01 2.5843703746795654e-01</leafValues></_>
        <_>
          <internalNodes>
            0 -1 91 -197521296 -125951137 -727662466 2117390841
            -939511296 2062755873 -49777548 -80577776</internalNodes>
          <leafValues>
            -4.9838405847549438e-01 2.1807383000850677e-01</leafValues></_>
        <_>
          <internalNodes>
            0 -1 204 -1410269952 991155159 631204500 1933042803
            220679936 2064081513 -253362304 365447</internalNodes>
          <leafValues>
            -6.3248771429061890e-01 1.5192644298076630e-01</leafValues></_>
        <_>
          <internalNodes>
            0 -1 106 -2147309421 -50965625 356588901 -573226889
            -1862227009 -1703366624 -1962709895 -1920793261</internalNodes>
          <leafValues>
            -3.1657806038856506e-01 3.0497685074806213e-01</leafValues></_>
        <_>
          <internalNodes>
            0 -1 75 -664747794 323708243 149661417 356980827 -209888263
            -675781 -309333317 402341759</internalNodes>
          <leafValues>
            -4.7569158673286438e-01 2.1244393289089203e-01</leafValues></_>
        <_>
          <internalNodes>
            0 -1 171 1057716656 -1273304688 1547828668 5824112 8125744
            87281916 -10485954 250084602</internalNodes>
          <leafValues>
            -5.1176464557647705e-01 1.8753862380981445e-01</leafValues></_>
        <_>
          <internalNodes>
            0 -1 139 357714943 28365300 -1354456684 783286180 840696296
            -1688340316 -290170766 786920319</internalNodes>
          <leafValues>
            -3.5950177907943726e-01 2.9378849267959595e-01</leafValues></_></weakClassifiers></_>
    <!-- stage 14 -->
    <_>
      <maxWeakCount>23</maxWeakCount>
      <stageThreshold>-1.8064804077148438e+00</stageThreshold>
      <weakClassifiers>
        <_>
          <internalNodes>
            0 -1 49 -138609035 -51244133 424714207 -539828777
            -1189000578 -15262851 -349995425 -8951493</internalNodes>
          <leafValues>
            -5.2631580829620361e-01 1.4280737936496735e-01</leafValues></_>
        <_>
          <internalNodes>
            0 -1 81 -443555638 -1064385910 1128272640 -672181296
            423344575 -2002345848 1632658358 -141585469</internalNodes>
          <leafValues>
            -3.3327448368072510e-01 3.4708356857299805e-01</leafValues></_>
        <_>
          <internalNodes>
            0 -1 179 -1678245892 924027395 405347092 254478851 -3081280
            -1281387861 -1090143728 -115998897</internalNodes>
          <leafValues>
            -6.1528760194778442e-01 1.7376041412353516e-01</leafValues></_>
        <_>
          <internalNodes>
            0 -1 29 -138084353 -226186316 83919172 -551750790 -71238264
            419438852 941643888 2066757376</internalNodes>
          <leafValues>
            -6.3147938251495361e-01 1.7346292734146118e-01</leafValues></_>
        <_>
          <internalNodes>
            0 -1 154 1582694399 -1724842052 -1359466820 530399140
            -1647028228 1071929338 996726262 -50857989</internalNodes>
          <leafValues>
            -2.8441587090492249e-01 3.7605494260787964e-01</leafValues></_>
        <_>
          <internalNodes>
            0 -1 224 4629152 136118302 21561845 164505737 -1434341685
            -1574729342 -1953789285 -1981840134</internalNodes>
          <leafValues>
            -4.1761156916618347e-01 2.4984559416770935e-01</leafValues></_>
        <_>
          <internalNodes>
            0 -1 197 -1089994895 -1222021336 -65540 -1918765084
            1071415286 225771005 -816316450 531628023</internalNodes>
          <leafValues>
            -3.0642455816268921e-01 3.5768532752990723e-01</leafValues></_>
        <_>
          <internalNodes>
            0 -1 107 -720861048 -1257375290 352845962 1460008451
            -45490225 2081982513 1030303723 1375944811</internalNodes>
          <leafValues>
            -5.9496450424194336e-01 1.9625420868396759e-01</leafValues></_>
        <_>
          <internalNodes>
            0 -1 86 -798951590 -1727857888 1378877966 -1717476762
            407017616 151792362 1220020922 816792551</internalNodes>
          <leafValues>
            -4.6383857727050781e-01 2.2118370234966278e-01</leafValues></_>
        <_>
          <internalNodes>
            0 -1 228 -143420401 -784083117 698061339 1499062360
            -16010614 -1634681004 -1200428289 -129900013</internalNodes>
          <leafValues>
            -2.4302148818969727e-01 4.6662655472755432e-01</leafValues></_>
        <_>
          <internalNodes>
            0 -1 163 1069611894 -1140680688 -1789768684 478608016
            -1069156060 420214828 1292958076 805306367</internalNodes>
          <leafValues>
            -4.6978044509887695e-01 2.3625023663043976e-01</leafValues></_>
        <_>
          <internalNodes>
            0 -1 119 -145304048 -1829115216 -100257571 932175551
            -1255737418 -3510353 957992255 -1123247560</internalNodes>
          <leafValues>
            -2.8874292969703674e-01 3.6543089151382446e-01</leafValues></_>
        <_>
          <internalNodes>
            0 -1 115 -775074825 -839232042 340790138 669848040 303619032
            1260532158 408731038 2038414333</internalNodes>
          <leafValues>
            -3.7154585123062134e-01 2.7979198098182678e-01</leafValues></_>
        <_>
          <internalNodes>
            0 -1 109 -302828934 -116620870 540770822 -376371796 59974042
            -1994653022 -358313285 1527075131</internalNodes>
          <leafValues>
            -3.9827787876129150e-01 2.8429684042930603e-01</leafValues></_>
        <_>
          <internalNodes>
            0 -1 122 1099293442 1376976928 -668892386 -1163398495
            596963742 790659584 -69930498 1431694122</internalNodes>
          <leafValues>
            -4.9705025553703308e-01 2.1156246960163116e-01</leafValues></_>
        <_>
          <internalNodes>
            0 -1 24 -127932437 -1068851000 1365323939 -773902048
            -1259476501 -1461015864 556876521 -1043390294</internalNodes>
          <leafValues>
            -2.5037014484405518e-01 4.4247627258300781e-01</leafValues></_>
        <_>
          <internalNodes>
            0 -1 40 -104385953 -1820522493 4459359 -146390665 1405506644
            -1031077888 -666868116 -14190829</internalNodes>
          <leafValues>
            -3.5367792844772339e-01 3.0763772130012512e-01</leafValues></_>
        <_>
          <internalNodes>
            0 -1 231 -74058756 -246366044 -1855930340 -921652856
            1636333052 -1323248760 1222811772 150528228</internalNodes>
          <leafValues>
            -6.3839298486709595e-01 1.5790429711341858e-01</leafValues></_>
        <_>
          <internalNodes>
            0 -1 182 2065228118 542679472 1078460720 -1991540384
            385896796 2828020 552474942 1656731391</internalNodes>
          <leafValues>
            -3.6155378818511963e-01 2.9792219400405884e-01</leafValues></_>
        <_>
          <internalNodes>
            0 -1 124 -787349517 -276697782 1301838942 -270139646
            110642556 -1888593921 2090670030 -286824617</internalNodes>
          <leafValues>
            -2.7981293201446533e-01 3.9316421747207642e-01</leafValues></_>
        <_>
          <internalNodes>
            0 -1 159 1326705649 -1891827759 -305326744 -1381630110
            2112113820 265215870 -326033798 -486541369</internalNodes>
          <leafValues>
            -2.8123405575752258e-01 4.0075454115867615e-01</leafValues></_>
        <_>
          <internalNodes>
            0 -1 54 -120837426 -1178538836 1252655279 227478279
            705888555 1740309166 -1437353857 1930394622</internalNodes>
          <leafValues>
            -5.6522643566131592e-01 1.8489921092987061e-01</leafValues></_>
        <_>
          <internalNodes>
            0 -1 99 890427351 210125678 1930039326 -70785342 1501565016
            528494762 1993347164 709313351</internalNodes>
          <leafValues>
            -4.0152919292449951e-01 2.8278151154518127e-01</leafValues></_></weakClassifiers></_>
    <!-- stage 15 -->
    <_>
      <maxWeakCount>20</maxWeakCount>
      <stageThreshold>-1.9978977441787720e+00</stageThreshold>
      <weakClassifiers>
        <_>
          <internalNodes>
            0 -1 188 -1246629385 -1084800591 1594989009 -975453871
            -83772417 -1900507005 -1115095617 -844385793</internalNodes>
          <leafValues>
            -4.6101322770118713e-01 3.0255103111267090e-01</leafValues></_>
        <_>
          <internalNodes>
            0 -1 5 -1427708182 578930179 -581610031 1441387529
            -112209515 -128284656 -901747958 -5392085</internalNodes>
          <leafValues>
            -6.1059898138046265e-01 1.9248901307582855e-01</leafValues></_>
        <_>
          <internalNodes>
            0 -1 130 -254781185 1362498763 270025055 529539544 273285560
            -360050128 -1842728450 -11370950</internalNodes>
          <leafValues>
            -3.7937164306640625e-01 3.0580058693885803e-01</leafValues></_>
        <_>
          <internalNodes>
            0 -1 60 -691280209 -791008574 947131012 -85278868 -727922662
            821080064 -1503117300 -238029094</internalNodes>
          <leafValues>
            -2.6966300606727600e-01 4.2253401875495911e-01</leafValues></_>
        <_>
          <internalNodes>
            0 -1 219 -750726838 -707067580 268736692 1901314135
            -1744137592 -1474297663 1650895758 -1693840566</internalNodes>
          <leafValues>
            -2.5757649540901184e-01 4.7931128740310669e-01</leafValues></_>
        <_>
          <internalNodes>
            0 -1 192 -1312717860 -1694433264 1211631080 -1859321214
            -1999629936 -2095349629 1513472878 294605475</internalNodes>
          <leafValues>
            -4.3754306435585022e-01 2.7474290132522583e-01</leafValues></_>
        <_>
          <internalNodes>
            0 -1 57 1389091583 -638924114 787352750 -8405770 1072585806
            729738991 1576846413 -218106225</internalNodes>
          <leafValues>
            -2.5234168767929077e-01 4.7376978397369385e-01</leafValues></_>
        <_>
          <internalNodes>
            0 -1 155 -1750073481 790149808 -1343472940 -289984524
            -547594636 1969061884 -1149741650 -35201</internalNodes>
          <leafValues>
            -3.0075782537460327e-01 4.0163850784301758e-01</leafValues></_>
        <_>
          <internalNodes>
            0 -1 12 -920088368 -779583336 268435731 1361141774
            -888561510 -1262186480 287477979 303108749</internalNodes>
          <leafValues>
            -3.1947761774063110e-01 3.7107351422309875e-01</leafValues></_>
        <_>
          <internalNodes>
            0 -1 235 -1071275345 176947470 2056850655 1039925939
            -1536967239 -1836958131 -944898065 -1634027061</internalNodes>
          <leafValues>
            -3.1649172306060791e-01 4.1035735607147217e-01</leafValues></_>
        <_>
          <internalNodes>
            0 -1 113 -1608550241 692881746 1746047006 1516013830
            831019036 789055625 1233701382 -210572698</internalNodes>
          <leafValues>
            -3.9718145132064819e-01 3.1031024456024170e-01</leafValues></_>
        <_>
          <internalNodes>
            0 -1 217 -78421498 -1059745560 329811 295295321 -1068530172
            -1706950584 780173535 1245741899</internalNodes>
          <leafValues>
            -3.9393261075019836e-01 3.1576937437057495e-01</leafValues></_>
        <_>
          <internalNodes>
            0 -1 77 -1047791645 -649027550 -1050856089 -546324443
            -805006406 -1937734924 491104699 -537157244</internalNodes>
          <leafValues>
            -2.2139158844947815e-01 6.0269474983215332e-01</leafValues></_>
        <_>
          <internalNodes>
            0 -1 125 1379992404 1160430760 -517980112 -1962696032
            1085276466 1023944074 -995884962 1965478822</internalNodes>
          <leafValues>
            -5.2717763185501099e-01 2.3405995965003967e-01</leafValues></_>
        <_>
          <internalNodes>
            0 -1 137 2104590280 1074823887 -133690112 1880721408
            2047952140 1513751067 8631818 1637801995</internalNodes>
          <leafValues>
            -5.8129203319549561e-01 2.1173591911792755e-01</leafValues></_>
        <_>
          <internalNodes>
            0 -1 222 -751582823 -2147073951 285212688 226578560
            1753385448 160563348 1459979168 -924980049</internalNodes>
          <leafValues>
            -3.8387584686279297e-01 3.3046409487724304e-01</leafValues></_>
        <_>
          <internalNodes>
            0 -1 194 -255790571 106369408 1090597136 13320608 -483289300
            545800741 1478146604 2143220287</internalNodes>
          <leafValues>
            -3.4700208902359009e-01 3.6894449591636658e-01</leafValues></_>
        <_>
          <internalNodes>
            0 -1 118 278003875 1142686741 1094750407 533742018 168429670
            1762009266 -232199764 -8510694</internalNodes>
          <leafValues>
            -4.7463735938072205e-01 2.5376793742179871e-01</leafValues></_>
        <_>
          <internalNodes>
            0 -1 167 85558228 1141047300 1409360 -1995865984 270539196
            722995452 962397098 1721988131</internalNodes>
          <leafValues>
            -4.8960411548614502e-01 2.7189677953720093e-01</leafValues></_>
        <_>
          <internalNodes>
            0 -1 34 621183694 -905051826 1462278 2131531910 295953049
            264781849 402795049 1713187374</internalNodes>
          <leafValues>
            -5.4026633501052856e-01 2.3719306290149689e-01</leafValues></_></weakClassifiers></_>
    <!-- stage 16 -->
    <_>
      <maxWeakCount>16</maxWeakCount>
      <stageThreshold>-1.4591554403305054e+00</stageThreshold>
      <weakClassifiers>
        <_>
          <internalNodes>
            0 -1 164 352377265 -1803091947 -738131623 -2062217195
            -260001101 -1988067126 -1728042772 -1987319365</internalNodes>
          <leafValues>
            -5.6879013776779175e-01 2.2612155973911285e-01</leafValues></_>
        <_>
          <internalNodes>
            0 -1 220 -748126200 -645844603 420479890 1506083330
            -264201592 -1306525375 1342215562 -148133413</internalNodes>
          <leafValues>
            -2.9553779959678650e-01 5.2298003435134888e-01</leafValues></_>
        <_>
          <internalNodes>
            0 -1 95 2044264610 2018619605 1073828221 2043261137
            -402650117 -1971290104 1115732146 -234055676</internalNodes>
          <leafValues>
            -5.4474884271621704e-01 2.7050346136093140e-01</leafValues></_>
        <_>
          <internalNodes>
            0 -1 216 1079345236 76551901 -1795059627 221085851
            -1937726988 -1467809776 -1970146673 -828438326</internalNodes>
          <leafValues>
            -4.2134091258049011e-01 3.5361272096633911e-01</leafValues></_>
        <_>
          <internalNodes>
            0 -1 84 -540541985 -1065163222 -2047205070 -616194253
            360010994 1007646414 550576657 -743985091</internalNodes>
          <leafValues>
            -2.6792851090431213e-01 5.6437200307846069e-01</leafValues></_>
        <_>
          <internalNodes>
            0 -1 102 -1940992033 -1657082388 -1641427274 803339911
            -829625100 415923538 412225310 2145899387</internalNodes>
          <leafValues>
            -3.1695145368576050e-01 4.8627039790153503e-01</leafValues></_>
        <_>
          <internalNodes>
            0 -1 111 269497110 -2061303008 16 524537904 285212944
            134611116 268435978 1680340567</internalNodes>
          <leafValues>
            -5.5338811874389648e-01 2.8484204411506653e-01</leafValues></_>
        <_>
          <internalNodes>
            0 -1 50 -238055202 -677834415 25187673 -777944992
            -2111651679 -2079719012 -484990290 -542986197</internalNodes>
          <leafValues>
            -2.4460740387439728e-01 7.2994726896286011e-01</leafValues></_>
        <_>
          <internalNodes>
            0 -1 138 588636960 1359806977 16978200 -1388932080
            -1204787828 705331209 914427438 1703639878</internalNodes>
          <leafValues>
            -4.7862780094146729e-01 3.2415199279785156e-01</leafValues></_>
        <_>
          <internalNodes>
            0 -1 93 1342177757 -805174949 262161 -1154842607 -2130704338
            -1673912320 841159012 -12359677</internalNodes>
          <leafValues>
            -4.1566404700279236e-01 3.8254153728485107e-01</leafValues></_>
        <_>
          <internalNodes>
            0 -1 70 -788335920 -787428184 4270108 -572447218 -442261085
            12878065 187467947 -989623621</internalNodes>
          <leafValues>
            -2.6594534516334534e-01 6.6039699316024780e-01</leafValues></_>
        <_>
          <internalNodes>
            0 -1 218 822583425 34081056 16875697 -2080333552 -1859999007
            8422048 294648801 -930101048</internalNodes>
          <leafValues>
            -4.5405635237693787e-01 3.4045201539993286e-01</leafValues></_>
        <_>
          <internalNodes>
            0 -1 168 2088586999 1544650672 -1098060044 1672326116
            -1119087148 363986940 1584222920 1677155495</internalNodes>
          <leafValues>
            -3.7755879759788513e-01 4.1530132293701172e-01</leafValues></_>
        <_>
          <internalNodes>
            0 -1 226 -782850952 -787906014 -2040265917 1364422803
            -889143144 -960318752 -2130661718 -7662678</internalNodes>
          <leafValues>
            -2.6671779155731201e-01 6.5375405550003052e-01</leafValues></_>
        <_>
          <internalNodes>
            0 -1 71 1713959904 1883645026 -1766942447 2066158899
            -2134563403 -864401540 -1987081432 -325720928</internalNodes>
          <leafValues>
            -2.8947743773460388e-01 5.1355487108230591e-01</leafValues></_>
        <_>
          <internalNodes>
            0 -1 207 1914013968 1476395264 4296992 361070593 142910135
            26804240 -769109276 2010317483</internalNodes>
          <leafValues>
            -4.9282607436180115e-01 3.3346068859100342e-01</leafValues></_></weakClassifiers></_>
    <!-- stage 17 -->
    <_>
      <maxWeakCount>14</maxWeakCount>
      <stageThreshold>-1.6129983663558960e+00</stageThreshold>
      <weakClassifiers>
        <_>
          <internalNodes>
            0 -1 0 -749297444 -251656691 33053 1895825411 -903445629
            -1610611712 -654145398 -78970710</internalNodes>
          <leafValues>
            -4.5223537087440491e-01 6.8483412265777588e-01</leafValues></_>
        <_>
          <internalNodes>
            0 -1 43 -1038941933 -515129021 419561476 -778892655 65734
            536870912 729104 -552908254</internalNodes>
          <leafValues>
            -4.6454203128814697e-01 4.2921501398086548e-01</leafValues></_>
        <_>
          <internalNodes>
            0 -1 150 -385758511 1518467920 803478679 1663151908
            -1915380528 -1928573114 -1197252069 1104535026</internalNodes>
          <leafValues>
            -3.4350949525833130e-01 5.9366607666015625e-01</leafValues></_>
        <_>
          <internalNodes>
            0 -1 230 -782716788 -595591152 369115785 486608964
            -2113760256 -2087164928 -1333755250 -400326390</internalNodes>
          <leafValues>
            -3.4245589375495911e-01 5.9250253438949585e-01</leafValues></_>
        <_>
          <internalNodes>
            0 -1 102 53250 -1996455934 268452210 -1178501120 -2146959184
            943857683 671095576 2047838803</internalNodes>
          <leafValues>
            -4.6639770269393921e-01 4.4693309068679810e-01</leafValues></_>
        <_>
          <internalNodes>
            0 -1 195 -1861222187 -2146237567 32916 -1853878272 2208
            65920 251734408 -1660436072</internalNodes>
          <leafValues>
            -4.7728413343429565e-01 4.7005653381347656e-01</leafValues></_>
        <_>
          <internalNodes>
            0 -1 162 -1526618717 471629488 1810120256 1837741170
            -1911286056 881069432 -1133112060 -219461689</internalNodes>
          <leafValues>
            -4.0599051117897034e-01 5.5475574731826782e-01</leafValues></_>
        <_>
          <internalNodes>
            0 -1 234 1107382361 -1577058304 213 34639904 17023162
            -2145386486 537108483 5808776</internalNodes>
          <leafValues>
            -5.7821696996688843e-01 4.4040110707283020e-01</leafValues></_>
        <_>
          <internalNodes>
            0 -1 181 1647546876 302120965 268435472 1107820608 940582936
            -523763549 1644234918 545743607</internalNodes>
          <leafValues>
            -6.1778372526168823e-01 3.4754347801208496e-01</leafValues></_>
        <_>
          <internalNodes>
            0 -1 191 -842983151 1447550766 50884137 286596387 808493746
            -740991951 -2110485352 -1195278134</internalNodes>
          <leafValues>
            -3.9418509602546692e-01 6.3965880870819092e-01</leafValues></_>
        <_>
          <internalNodes>
            0 -1 221 -506412896 1363263616 36718233 563150864
            -2002747256 9484184 -1072642678 -910489589</internalNodes>
          <leafValues>
            -2.4214136600494385e-01 8.4812289476394653e-01</leafValues></_>
        <_>
          <internalNodes>
            0 -1 196 1481310215 1627455900 134217759 -1609464688
            -1702854656 -2146435072 -2147442549 -637501438</internalNodes>
          <leafValues>
            -4.5593124628067017e-01 5.0367939472198486e-01</leafValues></_>
        <_>
          <internalNodes>
            0 -1 67 2030142976 310646785 69288197 285540608 402670402
            -1056309216 -2138529081 -16445437</internalNodes>
          <leafValues>
            -4.8359951376914978e-01 5.1485604047775269e-01</leafValues></_>
        <_>
          <internalNodes>
            0 -1 58 1077969694 1359478930 20 1897173026 268435466
            -1862270976 1073807371 34415571</internalNodes>
          <leafValues>
            -5.8918935060501099e-01 4.1967061161994934e-01</leafValues></_></weakClassifiers></_>
    <!-- stage 18 -->
    <_>
      <maxWeakCount>8</maxWeakCount>
      <stageThreshold>-2.2512230873107910e+00</stageThreshold>
      <weakClassifiers>
        <_>
          <internalNodes>
            0 -1 1 -775900968 -805253104 291505152 419954689 1107333139
            -2113732464 54559234 -619182072</internalNodes>
          <leafValues>
            -5.4150044918060303e-01 9.4197577238082886e-01</leafValues></_>
        <_>
          <internalNodes>
            0 -1 110 -787578185 -1249376221 149687298 -651869934
            209470540 519464945 2097039302 -922675741</internalNodes>
          <leafValues>
            -3.5735180974006653e-01 9.0821194648742676e-01</leafValues></_>
        <_>
          <internalNodes>
            0 -1 85 403001018 294447753 751616656 319910664 1325288645
            -1404287123 -806457787 1623409866</internalNodes>
          <leafValues>
            -4.3100079894065857e-01 6.9455099105834961e-01</leafValues></_>
        <_>
          <internalNodes>
            0 -1 97 1099819305 -1860038998 648614163 -773233888
            115676615 -461410313 133522951 1088763511</internalNodes>
          <leafValues>
            -4.3530485033988953e-01 7.4040091037750244e-01</leafValues></_>
        <_>
          <internalNodes>
            0 -1 203 1346572688 -1851579840 1672634372 2030174977
            269615144 -2145189702 68196376 155844616</internalNodes>
          <leafValues>
            -5.4048830270767212e-01 6.5467727184295654e-01</leafValues></_>
        <_>
          <internalNodes>
            0 -1 193 -1363638952 -1760694362 -94208992 2354978
            1299474088 208957236 1164076456 -1067457058</internalNodes>
          <leafValues>
            -4.5512872934341431e-01 7.6872020959854126e-01</leafValues></_>
        <_>
          <internalNodes>
            0 -1 232 -1808285351 271090848 552863968 -1845420029
            1140853130 67257876 -2075728671 -1862074358</internalNodes>
          <leafValues>
            -3.4788334369659424e-01 8.6185103654861450e-01</leafValues></_>
        <_>
          <internalNodes>
            0 -1 55 1073860736 1445520488 269615136 -805240814
            -2079293258 -2113663936 2424912 -1702362095</internalNodes>
          <leafValues>
            -4.0812867879867554e-01 8.1113797426223755e-01</leafValues></_></weakClassifiers></_></stages>
  <features>
    <_>
      <rect>
        0 0 1 1</rect></_>
    <_>
      <rect>
        0 0 2 1</rect></_>
    <_>
      <rect>
        0 0 2 6</rect></_>
    <_>
      <rect>
        0 0 3 4</rect></_>
    <_>
      <rect>
        0 0 3 5</rect></_>
    <_>
      <rect>
        0 0 4 3</rect></_>
    <_>
      <rect>
        0 0 4 4</rect></_>
    <_>
      <rect>
        0 0 4 6</rect></_>
    <_>
      <rect>
        0 0 5 2</rect></_>
    <_>
      <rect>
        0 0 5 3</rect></_>
    <_>
      <rect>
        0 0 6 4</rect></_>
    <_>
      <rect>
        0 0 6 6</rect></_>
    <_>
      <rect>
        0 1 1 1</rect></_>
    <_>
      <rect>
        0 1 3 4</rect></_>
    <_>
      <rect>
        0 1 6 3</rect></_>
    <_>
      <rect>
        0 2 1 5</rect></_>
    <_>
      <rect>
        0 2 1 6</rect></_>
    <_>
      <rect>
        0 2 3 2</rect></_>
    <_>
      <rect>
        0 2 3 4</rect></_>
    <_>
      <rect>
        0 2 3 6</rect></_>
    <_>
      <rect>
        0 2 5 6</rect></_>
    <_>
      <rect>
        0 3 3 4</rect></_>
    <_>
      <rect>
        0 4 1 2</rect></_>
    <_>
      <rect>
        0 4 2 2</rect></_>
    <_>
      <rect>
        0 5 1 1</rect></_>
    <_>
      <rect>
        0 6 1 2</rect></_>
    <_>
      <rect>
        0 7 1 4</rect></_>
    <_>
      <rect>
        0 7 2 2</rect></_>
    <_>
      <rect>
        0 7 3 2</rect></_>
    <_>
      <rect>
        0 8 1 4</rect></_>
    <_>
      <rect>
        0 9 2 2</rect></_>
    <_>
      <rect>
        0 9 3 2</rect></_>
    <_>
      <rect>
        0 10 1 3</rect></_>
    <_>
      <rect>
        0 10 2 3</rect></_>
    <_>
      <rect>
        0 10 3 2</rect></_>
    <_>
      <rect>
        0 11 1 2</rect></_>
    <_>
      <rect>
        0 11 2 2</rect></_>
    <_>
      <rect>
        0 11 2 3</rect></_>
    <_>
      <rect>
        0 11 4 2</rect></_>
    <_>
      <rect>
        0 11 6 3</rect></_>
    <_>
      <rect>
        0 13 1 2</rect></_>
    <_>
      <rect>
        0 13 2 1</rect></_>
    <_>
      <rect>
        0 13 2 2</rect></_>
    <_>
      <rect>
        0 14 1 2</rect></_>
    <_>
      <rect>
        0 14 2 2</rect></_>
    <_>
      <rect>
        0 14 3 2</rect></_>
    <_>
      <rect>
        0 16 2 1</rect></_>
    <_>
      <rect>
        0 17 2 1</rect></_>
    <_>
      <rect>
        0 17 3 1</rect></_>
    <_>
      <rect>
        0 17 4 1</rect></_>
    <_>
      <rect>
        1 0 1 1</rect></_>
    <_>
      <rect>
        1 0 5 2</rect></_>
    <_>
      <rect>
        1 0 6 3</rect></_>
    <_>
      <rect>
        1 1 6 5</rect></_>
    <_>
      <rect>
        1 2 4 4</rect></_>
    <_>
      <rect>
        1 3 1 1</rect></_>
    <_>
      <rect>
        1 4 1 1</rect></_>
    <_>
      <rect>
        1 6 2 2</rect></_>
    <_>
      <rect>
        1 6 2 3</rect></_>
    <_>
      <rect>
        1 7 3 3</rect></_>
    <_>
      <rect>
        1 10 1 1</rect></_>
    <_>
      <rect>
        1 10 3 2</rect></_>
    <_>
      <rect>
        1 10 3 3</rect></_>
    <_>
      <rect>
        1 11 2 3</rect></_>
    <_>
      <rect>
        1 12 1 2</rect></_>
    <_>
      <rect>
        1 14 4 2</rect></_>
    <_>
      <rect>
        1 15 2 1</rect></_>
    <_>
      <rect>
        1 17 1 1</rect></_>
    <_>
      <rect>
        1 17 2 1</rect></_>
    <_>
      <rect>
        1 17 3 1</rect></_>
    <_>
      <rect>
        2 0 1 1</rect></_>
    <_>
      <rect>
        2 0 3 1</rect></_>
    <_>
      <rect>
        2 0 6 2</rect></_>
    <_>
      <rect>
        2 0 6 3</rect></_>
    <_>
      <rect>
        2 0 6 6</rect></_>
    <_>
      <rect>
        2 1 3 4</rect></_>
    <_>
      <rect>
        2 1 6 4</rect></_>
    <_>
      <rect>
        2 2 1 1</rect></_>
    <_>
      <rect>
        2 2 5 3</rect></_>
    <_>
      <rect>
        2 2 6 6</rect></_>
    <_>
      <rect>
        2 4 1 1</rect></_>
    <_>
      <rect>
        2 5 1 1</rect></_>
    <_>
      <rect>
        2 5 2 2</rect></_>
    <_>
      <rect>
        2 5 3 3</rect></_>
    <_>
      <rect>
        2 6 1 1</rect></_>
    <_>
      <rect>
        2 6 3 2</rect></_>
    <_>
      <rect>
        2 6 3 3</rect></_>
    <_>
      <rect>
        2 8 4 3</rect></_>
    <_>
      <rect>
        2 10 3 3</rect></_>
    <_>
      <rect>
        2 11 4 3</rect></_>
    <_>
      <rect>
        2 14 4 2</rect></_>
    <_>
      <rect>
        2 15 1 1</rect></_>
    <_>
      <rect>
        2 16 1 1</rect></_>
    <_>
      <rect>
        2 17 2 1</rect></_>
    <_>
      <rect>
        2 17 4 1</rect></_>
    <_>
      <rect>
        3 0 5 2</rect></_>
    <_>
      <rect>
        3 0 5 3</rect></_>
    <_>
      <rect>
        3 3 2 1</rect></_>
    <_>
      <rect>
        3 7 3 3</rect></_>
    <_>
      <rect>
        3 9 2 2</rect></_>
    <_>
      <rect>
        3 10 3 2</rect></_>
    <_>
      <rect>
        3 10 3 3</rect></_>
    <_>
      <rect>
        3 12 3 2</rect></_>
    <_>
      <rect>
        3 14 1 1</rect></_>
    <_>
      <rect>
        3 15 1 1</rect></_>
    <_>
      <rect>
        3 16 2 1</rect></_>
    <_>
      <rect>
        4 0 2 1</rect></_>
    <_>
      <rect>
        4 2 4 3</rect></_>
    <_>
      <rect>
        4 2 4 4</rect></_>
    <_>
      <rect>
        4 3 3 5</rect></_>
    <_>
      <rect>
        4 4 2 2</rect></_>
    <_>
      <rect>
        4 10 3 2</rect></_>
    <_>
      <rect>
        4 10 3 3</rect></_>
    <_>
      <rect>
        4 11 1 1</rect></_>
    <_>
      <rect>
        4 11 4 2</rect></_>
    <_>
      <rect>
        4 14 3 2</rect></_>
    <_>
      <rect>
        4 14 5 2</rect></_>
    <_>
      <rect>
        4 15 1 1</rect></_>
    <_>
      <rect>
        4 16 1 1</rect></_>
    <_>
      <rect>
        5 0 5 1</rect></_>
    <_>
      <rect>
        5 0 5 2</rect></_>
    <_>
      <rect>
        5 0 5 3</rect></_>
    <_>
      <rect>
        5 2 4 6</rect></_>
    <_>
      <rect>
        5 5 3 4</rect></_>
    <_>
      <rect>
        5 6 2 2</rect></_>
    <_>
      <rect>
        5 8 3 2</rect></_>
    <_>
      <rect>
        5 9 2 3</rect></_>
    <_>
      <rect>
        5 10 3 2</rect></_>
    <_>
      <rect>
        5 13 4 2</rect></_>
    <_>
      <rect>
        5 14 4 2</rect></_>
    <_>
      <rect>
        5 15 1 1</rect></_>
    <_>
      <rect>
        5 17 1 1</rect></_>
    <_>
      <rect>
        5 17 4 1</rect></_>
    <_>
      <rect>
        6 8 3 3</rect></_>
    <_>
      <rect>
        6 9 3 3</rect></_>
    <_>
      <rect>
        6 17 1 1</rect></_>
    <_>
      <rect>
        7 0 1 1</rect></_>
    <_>
      <rect>
        7 3 4 3</rect></_>
    <_>
      <rect>
        7 5 3 3</rect></_>
    <_>
      <rect>
        7 7 2 3</rect></_>
    <_>
      <rect>
        7 12 3 2</rect></_>
    <_>
      <rect>
        7 13 2 2</rect></_>
    <_>
      <rect>
        7 17 2 1</rect></_>
    <_>
      <rect>
        7 17 4 1</rect></_>
    <_>
      <rect>
        8 0 4 2</rect></_>
    <_>
      <rect>
        8 0 4 4</rect></_>
    <_>
      <rect>
        8 1 4 6</rect></_>
    <_>
      <rect>
        8 2 4 4</rect></_>
    <_>
      <rect>
        8 5 2 3</rect></_>
    <_>
      <rect>
        8 5 4 5</rect></_>
    <_>
      <rect>
        8 7 3 2</rect></_>
    <_>
      <rect>
        8 7 3 3</rect></_>
    <_>
      <rect>
        8 10 2 3</rect></_>
    <_>
      <rect>
        8 11 3 3</rect></_>
    <_>
      <rect>
        8 12 2 2</rect></_>
    <_>
      <rect>
        8 13 2 2</rect></_>
    <_>
      <rect>
        8 13 3 2</rect></_>
    <_>
      <rect>
        8 17 4 1</rect></_>
    <_>
      <rect>
        9 0 2 1</rect></_>
    <_>
      <rect>
        9 6 2 2</rect></_>
    <_>
      <rect>
        9 6 3 3</rect></_>
    <_>
      <rect>
        9 11 3 2</rect></_>
    <_>
      <rect>
        9 12 2 2</rect></_>
    <_>
      <rect>
        9 14 3 2</rect></_>
    <_>
      <rect>
        9 17 3 1</rect></_>
    <_>
      <rect>
        10 6 2 4</rect></_>
    <_>
      <rect>
        10 7 2 2</rect></_>
    <_>
      <rect>
        10 7 3 3</rect></_>
    <_>
      <rect>
        10 10 2 2</rect></_>
    <_>
      <rect>
        10 10 2 3</rect></_>
    <_>
      <rect>
        10 11 3 3</rect></_>
    <_>
      <rect>
        10 14 3 2</rect></_>
    <_>
      <rect>
        10 17 2 1</rect></_>
    <_>
      <rect>
        10 17 3 1</rect></_>
    <_>
      <rect>
        11 0 3 2</rect></_>
    <_>
      <rect>
        11 0 3 3</rect></_>
    <_>
      <rect>
        11 0 3 5</rect></_>
    <_>
      <rect>
        11 0 3 6</rect></_>
    <_>
      <rect>
        11 1 3 4</rect></_>
    <_>
      <rect>
        11 1 3 6</rect></_>
    <_>
      <rect>
        11 2 3 6</rect></_>
    <_>
      <rect>
        11 5 2 3</rect></_>
    <_>
      <rect>
        11 9 2 3</rect></_>
    <_>
      <rect>
        11 9 3 2</rect></_>
    <_>
      <rect>
        11 10 3 2</rect></_>
    <_>
      <rect>
        11 12 3 2</rect></_>
    <_>
      <rect>
        11 13 3 2</rect></_>
    <_>
      <rect>
        11 14 3 2</rect></_>
    <_>
      <rect>
        11 16 3 1</rect></_>
    <_>
      <rect>
        11 17 2 1</rect></_>
    <_>
      <rect>
        11 17 3 1</rect></_>
    <_>
      <rect>
        12 0 1 1</rect></_>
    <_>
      <rect>
        12 4 2 4</rect></_>
    <_>
      <rect>
        12 8 2 1</rect></_>
    <_>
      <rect>
        12 11 2 3</rect></_>
    <_>
      <rect>
        12 16 1 1</rect></_>
    <_>
      <rect>
        13 3 1 1</rect></_>
    <_>
      <rect>
        13 9 2 3</rect></_>
    <_>
      <rect>
        13 14 2 2</rect></_>
    <_>
      <rect>
        13 15 1 1</rect></_>
    <_>
      <rect>
        13 16 1 1</rect></_>
    <_>
      <rect>
        14 0 2 5</rect></_>
    <_>
      <rect>
        14 0 2 6</rect></_>
    <_>
      <rect>
        14 1 2 1</rect></_>
    <_>
      <rect>
        14 5 2 2</rect></_>
    <_>
      <rect>
        14 7 2 2</rect></_>
    <_>
      <rect>
        14 8 2 2</rect></_>
    <_>
      <rect>
        14 10 2 1</rect></_>
    <_>
      <rect>
        14 11 2 3</rect></_>
    <_>
      <rect>
        14 12 2 2</rect></_>
    <_>
      <rect>
        14 13 1 1</rect></_>
    <_>
      <rect>
        14 13 2 2</rect></_>
    <_>
      <rect>
        14 14 2 2</rect></_>
    <_>
      <rect>
        14 16 1 1</rect></_>
    <_>
      <rect>
        14 16 2 1</rect></_>
    <_>
      <rect>
        14 17 1 1</rect></_>
    <_>
      <rect>
        14 17 2 1</rect></_>
    <_>
      <rect>
        15 4 1 1</rect></_>
    <_>
      <rect>
        15 15 1 1</rect></_>
    <_>
      <rect>
        16 1 1 1</rect></_>
    <_>
      <rect>
        16 2 1 1</rect></_>
    <_>
      <rect>
        16 3 1 1</rect></_>
    <_>
      <rect>
        16 12 1 1</rect></_>
    <_>
      <rect>
        16 13 1 1</rect></_>
    <_>
      <rect>
        16 17 1 1</rect></_>
    <_>
      <rect>
        17 0 1 6</rect></_>
    <_>
      <rect>
        17 1 1 1</rect></_>
    <_>
      <rect>
        17 2 1 6</rect></_>
    <_>
      <rect>
        17 3 1 2</rect></_>
    <_>
      <rect>
        17 4 1 5</rect></_>
    <_>
      <rect>
        17 5 1 1</rect></_>
    <_>
      <rect>
        17 5 1 5</rect></_>
    <_>
      <rect>
        17 12 1 1</rect></_>
    <_>
      <rect>
        17 12 1 2</rect></_>
    <_>
      <rect>
        17 13 1 2</rect></_>
    <_>
      <rect>
        17 17 1 1</rect></_></features></cascade>
</opencv_storage>
